32 3 3 3 
0.1183802783 0.1208226606 0.0440148227 -0.0420122407 -0.1203638911 -0.0474785790 -0.1488875896 -0.1431394964 0.1280653477 0.1245899349 -0.0143840136 0.2231392413 -0.1578962356 -0.0772715360 -0.0376817398 0.0530710220 0.0871494263 0.1828162223 -0.1189871803 -0.1456178129 0.1687168479 -0.2082729787 -0.0565716363 0.1092835218 -0.1312237084 0.0016375008 0.0839241743 -0.1401958466 -0.1064549983 -0.1318010837 0.0231000986 0.1358927637 -0.1061029658 -0.0638780594 0.0608983785 -0.1290318370 -0.1492851675 -0.0947715044 0.0195952039 0.0689229742 -0.2004353851 -0.0074615581 -0.0756799132 0.1674338281 -0.0882976279 -0.0889753848 -0.0701543018 -0.1206075698 -0.0259025022 -0.0348464884 -0.0507815592 -0.0301407054 -0.1854282469 -0.0946163163 -0.0668426752 0.1972213537 0.1275813133 -0.0655800551 0.1177872047 0.1201885939 0.1625642478 0.2052190751 0.0313336365 0.1904149801 0.0095199076 0.1111799926 -0.0924970359 -0.0861359239 0.1455991864 0.1592979729 -0.0740730837 0.0637855157 -0.0754997656 0.1822314411 0.1036599353 0.1476322263 0.0113785239 0.1257157028 0.0583787747 -0.0974787101 -0.1224557385 -0.1427116990 -0.1185549349 -0.1048999354 0.1956336498 0.1568794847 0.0447943844 0.0362299196 0.2116126865 -0.0871057659 -0.0598051995 0.0470225774 0.0594200455 0.0600431934 -0.0968117043 -0.0183602832 0.1374915242 0.1219106540 0.2054688334 -0.1622640640 0.0363681018 -0.2233145684 -0.0095984070 -0.2087867409 -0.1861283183 -0.1142713204 0.1446406394 0.0482656024 0.1293411851 0.1685335785 0.0792191327 0.0877104551 -0.0206927322 -0.0521717593 -0.0184348878 0.1840422153 -0.0194157194 0.0222310442 -0.0610803850 -0.0561976470 -0.1336109638 0.0653401315 0.1354990304 -0.1632614732 0.1499795914 0.0922779068 -0.1009798795 -0.1506346911 -0.2029934227 0.0645756423 -0.1066015884 -0.2187489271 0.0510780588 0.1712651551 -0.0866292864 -0.0382787883 0.0469113328 -0.0302603208 0.0499362424 -0.1480052471 0.1651024967 0.0589692518 -0.1037145257 0.0559361763 -0.1461540908 0.0397063680 0.1405200213 0.0747296810 -0.0066505577 -0.1654217988 -0.0855827704 0.0026520616 -0.0557379276 -0.0930769444 0.1254535019 0.0251013897 0.1003744528 0.1803883761 0.1603694409 -0.1107131392 0.0024702547 -0.1313195527 0.0375593454 -0.1257583350 -0.0320878774 -0.0768045858 0.0415575691 -0.0548185930 -0.0959418118 -0.1380300969 -0.0530694462 -0.0290598143 0.0621989593 0.2068297863 -0.1464748979 0.1281328797 0.1487085074 0.2114654183 0.0739061981 -0.1388243288 0.1904102713 -0.0107463263 0.1365988404 0.1301057488 0.2390978336 -0.0653363988 0.1621558368 0.2327336222 0.1670627892 0.1115753278 -0.1083909944 -0.1506994218 0.0268582273 -0.1472968161 -0.1834514588 0.2289243340 0.0980024934 -0.1730810255 -0.0719705597 0.1823887080 -0.1404547691 0.2227444202 0.1090096682 0.0455018356 0.1180409715 -0.1054769158 -0.0149760898 0.0670733526 -0.1456393898 -0.1942128390 0.0883194059 0.1942741126 -0.0823549256 0.1334918737 -0.0401435345 -0.0141655738 -0.1585705280 0.0252164602 0.1125184894 -0.1810278744 0.2039198428 -0.0295427181 -0.1272895634 -0.0550133772 0.1552229077 -0.2057986856 0.0041794246 -0.1435640454 -0.1115251929 0.0419966206 0.0958684534 0.0228811707 0.1329162270 -0.0109120365 -0.0417821743 -0.0271866005 0.1673508286 -0.1337536573 0.1212081537 0.1243398190 -0.0109798638 0.1217099056 -0.0105567621 0.1474799514 0.0229733773 -0.0283396095 0.0616808422 0.0366744809 0.1417674869 0.0597247705 -0.0438614823 -0.0672668815 -0.0940560251 -0.0706746206 -0.1334632933 -0.0469713546 0.1479830444 -0.0046831728 -0.1670959145 -0.0628622621 -0.1557779163 -0.1459290385 -0.1274479628 0.1248995364 0.1580085754 0.2107866108 0.1850264519 0.0498573035 0.0998854563 0.0079472708 -0.0582640283 -0.1388433427 -0.1393790543 0.0152702555 -0.1066709608 0.1003914997 0.0119795846 0.0762719661 0.0840772539 -0.1226715222 -0.0471020192 0.1019833907 0.2030366361 0.1806577891 -0.1240676045 0.1955278516 -0.0391240790 0.2073003799 -0.1269137710 0.0021728408 -0.1440935731 -0.0885301456 0.0291657392 0.1585532725 0.0166913327 -0.1473309100 -0.1525236666 0.1853291839 0.0692877695 0.0572807081 0.0054835766 -0.0633684695 -0.0778687149 0.2091813982 0.0473669097 0.2226972282 -0.1152175590 -0.0587529875 -0.1134262383 0.1458316296 0.0365154929 0.0946258307 0.2099231035 0.1194948405 -0.1386587471 0.0698235929 -0.0235674065 -0.0682667941 0.1553008109 0.0074430113 0.0560771152 -0.0406532213 0.1752868444 0.2121404111 0.0023042290 0.0007890362 0.1094903871 -0.1199628189 0.2107434571 0.1824207008 -0.1186936423 0.1789219379 -0.0231625680 -0.0445519090 -0.0519078858 0.0416674428 0.0793672428 0.2300325483 0.1387711614 -0.0439559110 0.1855618954 0.1148486882 0.1270945817 0.2200950831 -0.0149275204 0.1624635905 0.0492939688 0.1583557874 -0.1032579020 -0.0148049267 0.0789702237 -0.2022366375 0.1813486964 0.1557776332 -0.1132699400 -0.0609785691 0.1566443890 -0.1138012931 -0.0477429554 -0.0757602528 0.0884912610 0.1148920953 0.0672237575 -0.1991526932 0.0930168703 0.0387004837 -0.1609452218 0.1055886820 -0.0706999749 -0.1713168621 -0.1158397198 0.1387933940 -0.1143270135 -0.0988633409 0.1190849617 0.1189572141 0.0053664823 0.1677624732 0.0606810786 0.0510571711 -0.0465625040 0.0583997406 0.0273425076 0.2133026570 0.1227164790 0.2279437929 0.2049117982 0.1050556824 0.0102684796 0.0332833827 -0.0229510590 -0.0768300742 -0.0028842278 0.0057609151 0.1910395771 0.0997441709 0.0158752352 0.2100023329 -0.1115993261 0.0842954218 0.2117230594 0.0354192853 0.1712974757 -0.0600387938 0.2226410657 0.1065294147 0.0314575434 0.1279442310 0.0763618574 0.1249216273 0.1430070698 0.0706193522 0.1981535405 0.1487524509 0.0747740641 0.0701582879 -0.0548048504 0.0569042936 -0.0211323816 -0.0510351323 0.0436037518 0.1264493614 0.2269309908 -0.0189928263 0.0078978492 0.0661247224 0.0651506484 0.1481711119 0.1396009922 0.0599486195 -0.0827697590 -0.1341325343 -0.1662285924 0.0075591742 0.0135476794 0.2047833055 -0.1495249271 -0.1007146239 -0.0107683539 -0.0964449197 0.1911441833 0.0489121377 0.1330469102 0.1392861009 -0.1310996711 0.0811396539 0.2288649976 0.0930275768 -0.0364114791 -0.0285686888 0.0879451632 0.1670174748 0.1703574359 -0.0768689364 0.1413409561 -0.0416826978 0.1177530140 0.0473468229 0.1109016910 0.0715781078 0.0247677583 -0.0100273900 -0.1930977851 0.1618425846 0.1033271104 -0.1136718690 -0.1856930405 0.1746913791 -0.1751073152 -0.1771512032 0.1984184682 0.0498339683 0.0635943934 0.0609463565 -0.1889898926 -0.1682135612 0.0268228948 -0.0859685019 -0.0614221692 -0.0937119201 -0.0535901450 0.0756735802 0.1364185959 0.0482220314 0.0562042333 0.1490609646 0.2356070578 0.1159404218 -0.1585427076 0.0083139129 -0.0964889303 0.1866994649 0.0694195181 0.1038866714 0.1131387576 0.0747894123 0.0298736505 -0.1407749951 0.1510778219 0.1590971351 0.1509769559 0.0558824986 0.0288243834 -0.0435524546 0.1016496569 0.2229520977 0.0456899777 0.1270457357 -0.0135498019 -0.0172821749 0.1173644140 0.2221665084 -0.1224215031 0.0074101947 -0.0321804136 0.1192291901 0.1805720776 0.1708711386 0.0762278289 -0.0552246012 -0.0136451321 -0.0447855406 0.0341454223 -0.0580793284 -0.0227725785 -0.0737710521 0.0618823543 -0.0073296633 0.1522578150 0.0489669219 0.0555274561 0.0306057986 -0.2006096691 -0.0267910380 -0.0689783320 -0.2139706165 0.0711323023 -0.1475278139 -0.1947365850 0.1148431674 -0.0274686962 -0.0405765548 -0.0857217982 0.0449467786 -0.0184155963 -0.1992837787 -0.0905959085 0.0377076790 0.0385573208 0.1318490505 -0.2033144832 0.1156506985 0.1355761737 -0.2084796131 -0.1864098907 0.0518440865 -0.0794468820 0.0612380207 0.0205021650 -0.0892023817 0.1512307227 -0.1084186733 -0.2070921957 -0.0497377068 0.0071648462 0.0455355793 -0.2053153068 0.2321992069 0.0381621607 0.1879986972 0.1540599763 0.1057177484 0.0828666016 0.0160900634 0.1266022623 -0.0212323107 0.2158342898 0.1009245217 -0.1414514333 0.1503954381 -0.1368184239 0.1179424226 0.1839385927 0.1835589558 0.1316978633 -0.0656475574 0.0382474661 0.1112329960 0.2130490243 0.0895931274 0.2206119746 -0.1097800285 0.2282425910 -0.0246532988 -0.0536118113 0.1892661303 0.0924272016 -0.0599522367 0.2236585766 0.1479029059 -0.0832267329 -0.1304286867 0.1876015663 0.1676142663 0.0193304662 -0.0886960626 0.0759599432 0.1475605816 0.1098730117 0.0971321389 0.1777562499 0.1865961254 -0.0771661475 0.0443559475 0.1818484515 0.0974165350 -0.1322629303 0.0221865587 -0.1168595776 -0.0059899339 0.0223145578 -0.1755009145 -0.1063028648 0.0508681051 -0.1547828764 -0.1341040581 0.2215915769 0.0381104834 0.2048539668 -0.0498801507 -0.0290688369 0.0639058873 0.1253536493 -0.0203967970 0.0742143616 -0.0329392031 -0.0467841178 -0.0913518220 -0.0951040536 -0.2339083403 0.0639678612 0.0152296387 -0.0612302981 -0.0745764598 0.1284575611 0.0468987599 0.1671068966 0.0743314326 0.0268099718 0.0206746291 0.0746249408 -0.1893122941 0.1690300405 0.1155502200 -0.1596988738 -0.0563737638 -0.0529098660 0.0644493848 0.1973863393 0.1628424376 0.0666873157 0.0976779237 0.0183904618 0.1073870361 -0.0525230281 -0.1333944499 -0.0479087457 -0.1257348657 -0.0018256903 -0.1542105675 -0.0461636037 0.1203210354 -0.2235287130 0.0851804838 -0.0565875620 0.0281745829 -0.0780252218 0.0921787992 0.0869149044 0.0320899338 -0.0877043530 -0.0312291142 0.1240169331 0.0520687029 0.0363721214 0.1108148694 0.2205193341 0.0530323572 0.1648436338 0.1539670676 0.0149281071 -0.0665665120 -0.0165116396 0.1146041229 0.0228629131 -0.0382169895 0.0125107644 0.1797278821 -0.0818669572 0.1589161605 -0.0331938937 0.2180040777 0.1662849933 -0.0368684791 0.0036273175 -0.1040105447 0.0228465386 -0.1428604126 -0.0913926885 -0.0326522700 -0.1968967170 0.1170099825 0.0139288548 -0.1229168177 0.0027152426 0.1913359165 -0.0081649460 0.1687944233 0.0066530379 -0.2149302512 0.0786349252 0.1340506524 -0.1261211336 -0.0998804122 -0.0919739753 0.0778157935 0.1780118793 -0.0243294854 0.0937749073 0.0571898259 -0.1838711053 -0.0289555509 0.1552278399 0.0636972710 -0.0629534200 0.1333672404 -0.1502087712 -0.0058446550 -0.0448900051 0.1206783354 -0.0018101982 0.0937662348 0.1070249900 -0.1875140369 0.1383907348 0.0205958784 0.1167702898 0.2087021023 0.0105724167 -0.1775780618 0.0848009288 -0.1661047935 -0.1898115128 -0.0792022943 -0.0159427151 -0.0009063182 0.1018823683 -0.0311699249 -0.0639936030 -0.0329610668 -0.1574398279 0.0298127215 -0.0669570044 0.0299396943 -0.0909675136 0.2212921381 0.1129324809 0.1318028867 -0.1896522939 0.0585156307 -0.0630648509 -0.1343075484 -0.1316402256 0.1032849476 0.0715849847 -0.0558716580 -0.0908060148 0.0153713450 -0.0606504865 0.1054408252 -0.1578345001 0.1865315437 0.1076059788 -0.0992827117 -0.0677508488 -0.0449416004 0.0497744381 0.1977368593 -0.1357691139 -0.0649997368 0.2246889919 0.0979322121 0.1332911998 -0.1505789310 -0.2331297547 0.1431851685 0.0662571266 -0.1137522757 0.1613450646 -0.0966686010 0.0710071176 -0.1454268843 -0.1995702684 -0.1420508176 -0.0423918627 -0.0180552322 -0.1240171194 -0.0530870967 -0.1427244544 -0.1844549179 -0.0061706081 -0.1126605868 -0.1025707647 0.2343462557 0.0993080437 -0.0169932153 0.1991132349 0.1906476170 -0.1413839459 0.1283634156 -0.0666007027 0.0605215356 0.0923196152 0.1959660500 -0.1183591262 -0.1341432184 -0.0195549410 -0.0530498102 -0.0937842503 0.1278623492 -0.2001137137 0.1528363675 -0.0260192901 -0.0740687773 0.0136959320 -0.1675650477 -0.0542775393 0.0383583307 0.2078461945 0.2047688365 -0.0731442645 -0.0701121166 -0.0658777431 0.0590430014 -0.1297035366 -0.1782726943 0.0005834313 -0.1225629598 0.0477518290 0.1877626926 0.0641359165 -0.1785752028 0.0125288209 -0.0234255064 -0.0457712002 -0.0749441832 0.1639343649 -0.1144849285 -0.1428434998 -0.0761235058 0.0313829072 -0.0550543889 -0.0212419722 -0.0914833546 
32 
-0.0077906051 -0.0437819660 0.0141326981 0.1112600714 0.1569194645 -0.0556202419 0.1371650696 -0.0287038106 -0.1071640626 -0.0239433758 0.0741325840 0.0578864813 0.0941295028 0.1323382407 0.1860666722 0.0342075676 0.0589374080 0.1951312125 0.0659982339 0.2429546267 0.1439625770 -0.1916030943 -0.0138336988 0.0355694778 0.1415732056 -0.0450898036 0.0757664889 0.1031977087 0.0568547323 0.0332213975 -0.0868811235 -0.0087001389 
32 32 3 3 
0.0322265178 -0.0063391668 0.0000288823 0.0588650852 0.0220093820 0.0039327298 0.0756479874 -0.0428634956 0.0876630321 0.0903595909 -0.0224391054 0.0847182646 0.0437917262 0.0833534449 0.0509125218 -0.0043342155 0.0895472839 0.0720975697 0.0801703557 -0.0112831723 0.0762540027 0.0585095063 -0.0363244154 0.0172151569 -0.0110744489 -0.0309792869 0.0605717935 0.0883768350 0.0270756707 0.0714928135 0.0010412162 0.0824454278 -0.0035178110 0.0861699879 0.0575310588 0.0540698804 -0.0039447579 0.0210820269 0.0574279539 0.0277157091 -0.0135180028 -0.0077241804 0.0747031644 -0.0069833524 -0.0204944760 0.0048113535 0.0022399270 0.0443939902 -0.0151377767 0.0128341280 0.0127653452 -0.0216102544 -0.0524336509 -0.0160730593 0.0459343679 -0.0071079223 0.0213284120 0.0167053454 -0.0615748651 0.0544587560 -0.0333729945 0.0433072485 0.0634758174 0.0439335853 -0.0079689287 -0.0460707620 0.0417014845 0.0147491815 -0.0053998758 0.0727832615 0.0625075698 -0.0177690443 0.0329636224 0.0425950363 0.0052269800 -0.0426723473 -0.0033560880 0.0482524261 0.0467468239 -0.0202832483 0.0804450288 -0.0027091736 -0.0185452010 -0.0003073044 -0.0544430353 -0.0667057782 -0.0194301717 -0.0027014459 0.0763829947 -0.0366089456 0.0292478316 0.0469473936 0.0265217721 0.0075887204 0.0657549500 -0.0160016604 0.0551073812 0.0247353278 0.0548604466 -0.0014722229 -0.0106293922 -0.0587282591 -0.0096010929 0.0029119200 -0.0170706045 -0.0121249463 0.0710401535 0.0798120126 -0.0349161401 0.0417573154 0.0537689365 -0.0664304122 -0.0418064222 0.0404760912 -0.0114921946 -0.0547006540 -0.0182713419 0.0451538786 0.0171031244 0.0737196505 -0.0359596051 0.0481852032 -0.0074573173 -0.0458117314 -0.0213353615 0.0246263649 -0.0617991798 -0.0545692220 -0.0483579002 -0.0192579553 0.0121361893 0.0341685079 -0.0019851907 0.0409900993 0.0081867510 0.0301618837 0.0236437619 -0.0218071062 0.0579845123 -0.0002785444 -0.0236477926 0.0247908626 0.0042103203 -0.0512187853 -0.0201807059 0.0214547925 -0.0205411930 -0.0232583228 0.0115433158 -0.0139187425 -0.0896925554 0.0113329198 0.0286587346 -0.0109663699 0.0217069853 0.0875661820 -0.0105454251 -0.0074660294 -0.0214194935 0.0718551725 0.0267466512 -0.0210985206 0.0109059084 0.0713045001 0.0580821596 0.0027041307 -0.0129984887 -0.0351871252 -0.0283323191 -0.0160160344 -0.0756516233 -0.0054546678 0.0496372841 0.0734291524 0.0778370351 0.0142007768 0.0117923049 0.0139837619 0.0580450781 0.0895173624 0.0781788453 0.0823463425 0.0732861385 0.0652143583 0.0884477496 0.0672304854 0.0734348074 0.0970382839 -0.0050668987 0.0316022858 0.0065964567 0.0331857353 0.0302752089 -0.0395420790 0.0060339938 0.0064198654 -0.0322895497 -0.0345121138 0.0338066146 0.0207340159 0.0368796587 -0.0344038196 -0.0530495942 -0.0387496091 0.0311432406 0.0080919052 -0.0176247936 0.0346186794 0.0088817850 0.0432638153 -0.0221655872 0.0115081826 0.0612485595 0.0093286093 0.0632256567 0.0932864770 0.0719229132 0.0715911090 0.0569659360 -0.0225882791 0.0098951580 0.0432964824 -0.0382631049 -0.0324662402 0.0362856947 0.0453914143 0.0220703483 0.0534735508 0.0159908943 -0.0687106550 -0.0639462471 -0.0416265354 -0.0594285689 -0.0603290163 0.0446117185 0.0108281579 -0.0305307768 0.0696654841 0.0675736964 -0.0113616530 0.0488149561 -0.0345839746 -0.0643216521 0.0009106589 -0.0043599359 0.0569868386 0.0833822116 -0.0176404603 -0.0217842944 0.0035067727 0.0047319480 0.0360142924 0.0650830567 0.1015933454 0.0765748844 0.0714058354 0.0881376863 0.0080347750 0.0244255364 0.0353594981 0.0809431449 0.0115338182 -0.0188931338 0.0187533870 0.0200444236 0.0828247294 -0.0128879333 0.0662263930 0.0926789641 0.0357078053 0.0297089405 0.0753300861 -0.0053463853 0.1052129194 0.0361413471 0.0070989351 0.0978629440 0.0866473019 0.0066964873 0.0037172413 0.1010227352 -0.0095503796 0.0366419442 -0.0058317096 0.0883288160 0.0732936934 0.0683556870 -0.0140896663 -0.0385198407 0.0662739277 0.1112810001 0.0570022054 0.0480788648 0.0977339521 0.0189883355 0.0139449779 0.0052816612 0.0406973548 0.0461716130 -0.0088712629 0.0501016229 -0.0372950770 -0.0230891705 -0.0189613737 -0.0459531397 -0.0419235118 -0.0074221869 0.0124594970 0.0241289269 0.0291044712 0.0117711602 0.0015847732 -0.0206807684 -0.0165148843 0.0506533869 0.0530546233 0.0690330863 0.0779656023 0.1003083661 0.0865106136 0.0769909024 0.0625107959 0.0404662825 0.0084157828 0.0935243890 -0.0248293635 0.0150217479 0.0909027904 0.0537295975 0.0903842747 0.0892698541 0.0830771476 -0.0138663948 0.0599486195 0.0275126789 0.0888268799 0.0199181978 0.0062188343 0.0303926840 -0.0336596072 -0.0167366974 0.0173099097 -0.0061114184 0.0178475119 -0.0595942587 -0.0655190870 0.0004951107 0.0328853354 -0.0665093213 0.0116421133 -0.0075822542 0.0625341013 0.0239751078 -0.0273170173 0.0802172646 0.0335081592 0.0143549303 0.0766428113 0.0272602811 -0.0158879161 -0.0595210418 -0.0215997994 0.1084067747 -0.0298526641 -0.0147820115 0.1087243184 0.0776980892 0.0399176516 0.1085069701 -0.0389453061 -0.0082803573 0.0241985004 0.0442619845 0.0551721491 0.0176576469 0.0222106967 -0.0236747023 0.0919327140 0.0414304137 0.0605962835 0.0390591919 0.0541012958 0.0408330597 0.0730494112 0.0459734425 0.1047720164 0.0991704538 0.0133687984 -0.0042966311 -0.0118514886 0.0530290417 -0.0321451537 -0.0278433897 0.0567369722 0.0547167026 -0.0160917398 0.0251383074 -0.0326800272 0.0543891974 -0.0509190708 -0.0293115005 0.0683570579 0.0045161010 0.0263003092 0.0455460474 -0.0636787564 -0.0005600697 0.0152491396 -0.0053517213 0.0466186404 0.0829372555 -0.0465310141 0.0160153080 0.0243005473 -0.0202327352 0.0457480550 0.0562496111 0.0095450152 0.0514813475 0.0741113126 0.0284058861 0.0064403857 0.0470679253 -0.0313483477 0.0319618173 -0.0100757992 -0.0157682225 0.0115728397 0.0164981298 0.0370926671 0.0447836593 0.0218837615 -0.0611777902 -0.0394028984 0.0029041369 -0.0816708505 -0.0204000790 0.0840759426 -0.0295417625 -0.0615931638 -0.0202797204 0.0180504005 0.0867071077 -0.0026354080 0.0036151998 0.0705665722 0.0823492482 0.0660788193 0.0249494016 0.1049171016 0.0179671403 -0.0660925806 -0.0301160198 -0.0333850607 0.0233119931 -0.0685097054 0.0643951073 -0.0320513733 0.0105268881 0.0681922212 0.0242177900 -0.0058341138 0.0138961924 0.0915986151 0.0369265974 0.0709913522 0.0244536456 0.0304433648 0.0974866599 -0.0138244648 0.0695136487 -0.0078910366 0.0626983419 0.0679275766 0.0644082725 -0.0128490562 0.0428075194 0.0528104529 -0.0236774478 -0.0322584473 -0.0536551923 -0.0423520505 -0.0368681028 0.0276486427 -0.0449457914 0.0033072350 -0.0106490990 -0.0416650213 0.0291141160 -0.0727523044 -0.0021676538 0.0587285608 -0.0517687611 -0.0139486538 0.0699513182 -0.0232773442 -0.0032653601 0.0860295519 -0.0401497409 0.0334287472 0.0490010791 0.0308156293 0.0592993386 0.1126123294 0.0050538727 0.0329494178 0.0348096341 -0.0396413542 -0.0115824919 0.0933781341 -0.0559699312 0.0306193065 0.0036155011 0.0393233784 0.0050123599 -0.0167382825 -0.0671001300 -0.0811735764 -0.0316950753 -0.0607194453 -0.0505211912 -0.0396340415 0.0143347308 -0.0134074194 -0.0230525099 0.0360468440 -0.0156191606 -0.0145548470 0.0982331187 0.0282901991 0.0538219623 0.0327808671 0.0120080905 -0.0026977484 0.0896862894 0.0388023108 -0.0671855658 0.0881630629 0.0385149382 0.0647369027 0.0540322810 0.0091261808 0.0562514961 0.0769900382 0.0694328696 0.0077359984 0.0471741408 -0.0133184269 0.0942827985 0.0866737366 -0.0206511151 -0.0228636377 0.0882290825 0.0881872699 -0.0041446271 0.0484503657 0.0823897421 -0.0151447784 0.0355480425 0.0840831697 -0.0347181894 0.0737664700 0.0217371192 -0.0295160264 0.0728616118 0.0243531372 -0.0043793749 -0.0105154272 -0.0207049623 -0.0098381257 0.0018086639 -0.0572362132 -0.0508344322 -0.0555655211 -0.0352728665 0.0191757120 -0.0082237609 -0.0000897064 -0.0375543274 -0.0532878786 -0.0530056208 -0.0565146394 0.0183733609 -0.0539038628 -0.0525871255 -0.0690686330 -0.0281503145 -0.0018514807 -0.0675102696 -0.0464168563 -0.0843945146 -0.0279016830 -0.0972616598 0.0211969502 0.0397509150 -0.0064623104 0.0115408842 0.0770023316 0.0374758467 -0.0187858082 0.0799898133 0.0722985789 0.0330477953 -0.0734438598 -0.0389863849 -0.0346797369 -0.0470484495 -0.0536792353 -0.0188602097 -0.0950454026 -0.0591997243 -0.1109119132 0.0260956883 -0.0616742298 -0.0519238412 -0.0079490198 -0.0774479285 -0.0224828552 -0.0035182848 -0.1007435098 -0.0518119782 0.0368728824 -0.0437376983 -0.0414770395 -0.0036284416 -0.0516849160 -0.0411853381 0.0813229829 -0.0176642556 0.0894991159 0.0668627098 0.0342700742 0.0583539084 0.0822875500 -0.0133485328 0.0686386153 0.0837866366 0.0964834839 -0.0052396744 -0.0225476436 0.0176122561 0.0631667301 0.0038808286 0.0018037789 0.0439550616 -0.0039617661 -0.0254606307 0.0171569437 0.0481564179 -0.0168140940 -0.0435594954 -0.0158200711 -0.0183069110 -0.0786520839 0.0908894464 -0.0261966102 -0.0252393857 0.0254918579 -0.0278825331 -0.0424039029 0.0712899342 0.0513925925 0.0040011955 0.0856568068 0.0904198661 0.0489752069 -0.0155172013 -0.0476882719 -0.0988743082 -0.0191225074 -0.0242109187 -0.0433989055 -0.0794390887 -0.1145584136 -0.0643877462 0.0171980727 0.0715585649 -0.0029023681 0.0841371268 0.0809273720 0.0183341298 0.0239072591 0.0592921339 -0.0265782867 0.0704068914 0.0732471943 0.0773813650 0.0884575769 -0.0067738304 -0.0004777190 0.0639112368 0.0651748329 0.0719182268 0.0275919586 0.0129061285 -0.0921386704 0.0161171071 -0.0853446275 -0.0917723253 0.0046786554 -0.0116199171 -0.0864939094 0.0814168006 0.0062065050 0.0677795932 0.0194293354 0.0563246123 0.0283697769 0.0082249288 0.0631388053 0.0688234717 0.0293467455 0.0830955133 -0.0188779533 0.0708916485 0.0053573074 0.0550387911 0.0120583260 0.0313908942 0.0769320726 -0.0127263227 0.0654976591 0.0161852352 -0.0200948026 0.0131825516 0.0541264564 0.0636018217 0.0386362523 0.0247867890 -0.0704585388 -0.0909538418 -0.0278005842 -0.0604124367 -0.0357673541 -0.0329506770 0.0658767000 -0.0874891132 0.0116266245 0.0646435916 0.0927231610 0.0008062756 0.0096049188 0.0376508422 0.0423358791 0.0585765764 0.0790113211 0.0244996399 -0.0236765649 -0.0213581454 -0.1009824723 -0.0549953170 -0.0320286714 -0.1011211723 -0.0018250206 -0.0561284050 -0.0934622139 -0.0279872958 -0.0405171625 -0.0127716521 -0.0794664249 -0.0798443407 -0.0860443786 -0.0090978723 -0.0351044573 -0.0683113262 0.0155755999 0.0526711866 -0.0237706956 0.0801234841 0.0292521995 0.0002785510 -0.0020545628 -0.0173122510 0.0656830296 0.0542227030 -0.0089135272 0.0734354630 0.0442968421 -0.0076329624 0.0101668499 0.0765119046 0.0422099680 -0.0352708586 0.0192342885 0.0096645830 -0.0838227123 0.0061668921 0.0104548885 -0.0622697324 -0.0379651561 -0.0535287932 -0.0871734992 -0.0430929475 -0.0360906199 -0.0357415490 -0.0204651430 -0.0792467818 -0.0616709739 0.0506423488 -0.0065424507 0.0019205774 0.0075742868 0.0051488741 0.0762409419 0.0529464893 0.0105035519 -0.0028143637 0.0128068486 0.0549183302 0.0192523822 -0.0578923449 0.0358936079 -0.0095915999 -0.0306640659 0.0469560362 -0.0160207506 -0.0412308052 0.0818611011 0.0671142340 -0.0508980080 0.0078875544 -0.0107973712 -0.0705248415 0.0350749157 0.0080651836 -0.0918331221 0.0266871080 0.0657035559 -0.0120050870 -0.0696043149 -0.0072307172 -0.0638673455 -0.0060217781 -0.0996839330 0.0179794375 -0.0455828682 0.0080921985 -0.0441525206 -0.0175384283 -0.0905240327 -0.0838418752 -0.0720308498 -0.0641141608 -0.0317201428 -0.0326804034 -0.0922458768 -0.0333292559 -0.0599936806 -0.0482072085 -0.0340803601 -0.0824326724 -0.0544358343 -0.1087616608 -0.0736764744 0.0277689882 -0.0053618802 -0.1072219387 -0.0216416977 -0.0157042220 -0.0026985710 -0.0420410149 0.0151797896 -0.0806197599 -0.0561722070 0.0184735842 0.0803817436 0.0556256622 -0.0738178715 0.0980241895 0.0286758561 -0.0925330073 0.0453726351 0.0338441692 0.0388305299 -0.0302126277 -0.0398914516 -0.0613283552 -0.0059249969 -0.0247890521 -0.0858872756 -0.0266343486 0.0097638033 0.0650659129 0.0431020707 0.0627694130 -0.0503303111 -0.0241015386 0.0122264884 0.0051532020 -0.0530533530 0.0094350046 0.0361111984 -0.0408300497 -0.0176715404 -0.0239079446 0.0217630975 -0.0615978949 -0.0285675805 -0.0626525655 -0.0344541669 0.0593360476 -0.0330722108 -0.0132278828 0.0017704755 -0.0739136338 -0.0712761655 -0.0062715942 -0.0146408305 -0.0848921537 -0.0024148934 0.0671729073 0.0211487301 -0.0366517566 -0.0020288117 0.0457202643 -0.0365495384 -0.0051047313 0.0631833151 0.0011570420 -0.0324962325 0.0103719998 -0.0023942844 0.0174774993 0.0247259475 -0.0433119610 0.0039616078 -0.0095617492 0.1085130498 0.0575931780 0.0291062091 0.0769861341 0.0584580489 0.0225859955 0.0782383084 0.0779707655 -0.0298497304 -0.0718340874 0.0263067354 0.0796954855 -0.0225317962 0.0410720184 0.0848597437 -0.0102500468 -0.0418643504 0.0728607625 -0.0532482341 -0.0460962430 -0.0383434817 -0.0005632103 -0.0171469115 0.0613632202 -0.0733244643 -0.0653355122 -0.0440386608 -0.0466100648 0.0542743057 0.0044453237 0.0044263261 0.0159214623 0.0442449078 -0.0126578491 0.0318973139 -0.0241886619 -0.0273867846 -0.0400393941 -0.0642408952 0.0744777694 -0.0092754988 0.0087033883 0.0371497087 0.0466046445 0.0327753462 0.0097362576 0.0328917578 -0.0218657348 -0.0474786200 -0.0350503884 -0.0297699887 -0.0336271822 -0.0750823542 0.0704927891 -0.0030342957 -0.0107296826 0.1057831421 0.0002062143 0.0103424359 -0.0013736944 -0.0875087008 0.0250137635 0.0879675597 0.0180728845 -0.0218534116 0.0110556027 0.0284479000 -0.0439750552 0.0194275174 -0.0327979922 -0.0044599469 -0.0273394939 0.0441620797 -0.0103304805 -0.0437939540 0.0544327125 0.0438898914 -0.0307754632 0.0698502436 0.0401445739 0.0339678302 -0.0530801639 -0.0473671705 0.0527451001 -0.0723271370 -0.0525266752 -0.0236478727 -0.0562386625 0.0420178287 0.0477182381 -0.0499237850 0.0751588345 0.0675382540 -0.0627547726 0.0390472263 0.1036175787 -0.0803656280 0.0035252988 0.0789839923 0.0615118593 -0.0492451787 0.0236704480 0.0732437074 -0.0564303622 -0.0315876640 0.0778386071 -0.0239276290 0.0340559185 0.0141797680 0.0614708588 -0.0123146754 -0.0358234197 0.1035233214 0.0650012791 -0.0360737145 0.0629435182 0.0347370766 0.0059647099 0.0770797879 -0.0073091285 -0.0306840185 -0.0067307684 0.0355801210 -0.0181618966 -0.0541088544 -0.0700135529 -0.0319867283 -0.0198491141 0.0557498261 -0.0473053232 -0.0048162243 -0.0447415113 0.0448243953 -0.0406422466 -0.0187366456 -0.0373075083 0.0573053025 0.0507908054 0.0071618445 -0.0547672436 0.0560881272 -0.0658191442 -0.0031471336 0.0431697331 0.0373651758 0.0276720691 0.0385135636 -0.0164180528 0.0370617472 0.0022697116 -0.0772339404 -0.0071061067 0.0693364367 0.0106529184 0.0250637196 0.0592948757 -0.0573973767 0.0006510564 -0.0177080389 -0.0505445078 0.0526282378 0.0399214104 0.0565203354 -0.0458652340 0.0257596895 0.0176708885 -0.0297381561 0.0545332395 -0.0460273549 0.0196897388 -0.0128673203 0.0210285299 -0.0112779969 -0.0767295957 0.0914509520 0.0719350651 -0.0624123886 -0.0059532770 -0.0193687882 0.0374342911 0.0692635775 0.0644203275 -0.0800566673 0.0216239728 -0.0084329238 -0.0094491877 0.0489189513 -0.0035376782 0.0106963199 -0.0103583522 0.0084850155 0.0325345956 -0.1059168279 -0.0631671324 0.0697893798 -0.0477793366 -0.0167692099 -0.0123042241 -0.0510625541 0.0517929420 -0.0423632823 -0.0629250929 -0.0023339132 -0.0127569670 -0.0926487595 -0.0336656384 -0.0260770470 0.0181965008 0.0025195354 -0.0470353775 0.0925249755 0.0207265988 -0.0575228184 0.0020227821 0.0690475851 -0.0665191263 -0.0494012944 -0.0676992387 -0.0302245226 -0.0865377635 -0.1062285304 -0.0997809991 -0.1099240109 -0.1129063368 -0.0527352691 0.0187258516 0.0614506863 0.1001410633 0.0360144116 0.0080661196 0.0751649737 -0.0084806532 0.0125094242 0.0130611490 -0.0110546695 0.0311563592 -0.0101311738 0.0210931599 0.0504466295 -0.0049681873 0.0533567630 0.0554814860 0.0602552630 -0.0053147180 0.0766482726 0.0682205111 -0.0251362938 0.0539011247 -0.0046017598 -0.0295538418 -0.0198928006 0.0049685338 0.0453563258 0.0064282073 -0.0574407391 0.0156331509 0.0606027320 0.0017087159 0.0178463981 0.0831523314 -0.0165640302 -0.0284386426 -0.0129987495 -0.0049959514 0.0547070093 -0.0006869934 -0.0111752516 0.0389507189 -0.0121007282 -0.0699413121 -0.0038783532 -0.0117612816 0.0165745765 0.0106387362 0.0382362045 0.0337504558 -0.0603499599 -0.0296542756 0.0968088210 0.0520843677 0.0278569050 0.0646141246 -0.0479082875 0.0155474208 -0.0088828262 -0.0566047095 0.0069950041 0.0253597088 0.0503125191 -0.0159420799 -0.0260239374 0.0848575681 0.0534745939 0.0284196138 0.1091127843 0.1084845215 0.0246106870 -0.0189705193 -0.0213923194 0.0557086729 0.0433466844 0.0512319766 0.0035908446 0.0257400796 0.0121188294 0.0908270329 -0.0665344968 -0.0633173361 -0.0025653029 -0.0032116100 -0.0724184960 -0.0421849526 0.0063305451 -0.0260603726 0.0407944955 0.0133398250 0.0277680848 0.0554991886 0.0977993160 0.0891154036 0.0503649935 0.0702258721 0.0752646923 0.0147407493 0.0093984148 0.0133416178 -0.0281309187 0.0194433741 -0.0268857721 -0.0538291521 -0.0250932630 0.0379381850 -0.0277263001 0.0393857583 -0.0264051482 -0.0195987262 0.0297934655 0.0031565926 0.0150337145 -0.0115896566 0.0054562450 0.0164298769 0.0290882066 0.0750330091 0.0881470665 0.0489976816 0.0836189464 0.0432808176 -0.0290184282 0.0825021416 0.0185749382 -0.0287933629 -0.0681932345 0.0213988200 -0.0002087205 -0.0682348013 0.0153178927 -0.0259018540 -0.0358425602 0.0395335853 -0.0459487401 -0.0522130877 0.0418570526 -0.0103751766 0.0059098192 0.0100183114 -0.0447494984 0.0384046026 0.0194892492 -0.0175392814 0.0667317882 0.0279929098 -0.0248825140 0.0159787871 0.0809888169 0.0329968147 -0.0554811656 0.0718102455 -0.0384197757 -0.0180176422 0.0496425219 0.0525703691 0.0082504461 0.0437510423 -0.0229919609 -0.0265217349 0.0310886707 0.0186672080 -0.0037585865 0.0086951600 -0.0176867098 -0.0594474040 -0.0439521037 0.0172158089 -0.0447843336 -0.0512240604 0.0661849454 0.0028476296 0.0409963354 -0.0127235297 0.0012774466 -0.0261715315 0.0171586927 0.1002746969 0.0931151807 0.0911704600 -0.0005791375 -0.0442819335 0.0461288877 0.0704414845 0.0034847807 -0.0177883171 0.0468716286 0.0244444218 -0.0256557558 0.0420423858 0.0394424535 -0.0311166607 0.0131813511 -0.0334990993 -0.0176765937 -0.0028262616 0.0045483629 -0.0489790700 0.0004065888 0.0560301617 -0.0488490164 0.0449959114 0.0005111425 0.0446151569 0.0049422598 0.0236020200 0.0603915490 -0.0007685149 0.0540556014 0.0572527722 -0.0063767089 0.0395282023 -0.0046251221 -0.0064317845 0.0247313287 0.0273619369 -0.0001739786 0.0711997300 0.0064597218 0.0648870096 0.0105381636 -0.0000057994 -0.0445687696 -0.0104819238 0.0391895920 -0.0188702513 -0.0390665680 0.0124977408 -0.0617946349 0.0575310886 -0.0242977850 0.0170463212 0.0535999574 0.0128841363 -0.0160176978 0.0243279971 0.0962023437 -0.0227219295 -0.0419985391 0.0709315166 0.0623383969 0.0115945861 0.0853287354 0.0202929247 -0.0866834149 0.0815333351 0.0507468395 -0.0162420981 0.0789854079 0.0111914724 -0.0154964253 0.0586951710 0.0516521372 0.0689472184 0.0732138753 0.0499891415 0.0179513413 0.0460684225 -0.0347777195 0.0322637931 0.0661447495 0.0500112064 -0.0291895699 0.0649484023 0.0188902467 0.0311638620 -0.0150754154 -0.0111266691 0.0031451057 0.0736021772 -0.0357055850 -0.0345580131 0.0626128018 0.0590919480 0.0162328649 0.0280367956 0.0120763434 0.0011228609 0.0635123923 0.0296035092 0.0462920703 -0.0093465289 0.0214287564 0.0632890388 0.0602089278 0.0452474132 0.0476473644 0.0419107750 0.0925622210 0.0178746786 0.0155752096 0.0981257111 0.0497294515 0.0601521879 0.0474155694 0.0733057782 0.0366723612 0.0423178189 0.0555931479 -0.0090060690 0.0073898933 -0.0260191932 -0.0619463734 -0.0526625663 -0.0046274601 -0.0032726380 -0.0260651428 -0.0002625111 -0.0326539800 -0.0207099877 0.0652264506 0.0180184487 0.0324896388 -0.0108220512 0.0386273749 -0.0209015124 0.0442790315 0.0672644600 0.0589362532 -0.0162704177 0.0323286876 0.0439065918 0.0608233176 -0.0042501916 0.0218177252 0.0627241880 0.0197861213 -0.0274287648 0.0606754944 0.0574241355 -0.0268391501 0.0333256647 -0.0439421982 0.0794194043 0.0768387690 0.0124444384 0.0296951309 0.0910148770 -0.0000627479 0.0802612081 0.0364932530 0.0290180482 -0.0060337908 -0.0300539434 -0.0628579855 0.0355666652 0.0198986381 -0.0430940427 -0.0286105070 0.0300452225 0.0476818196 -0.0206043292 0.0685714856 0.1074755117 0.0842254609 0.0159847382 0.0893183574 0.0865020156 -0.0262991693 -0.0413721986 0.0040300940 0.0696470886 0.0015657828 0.0296779200 0.0175222829 0.0833801329 0.0074614906 0.0955709741 -0.0213128626 -0.0250826403 -0.0126660885 0.0121268835 0.0697299168 -0.0247447751 0.0238903537 0.0372669846 0.0728258342 0.0640244931 -0.0149184782 -0.0417693965 0.0972346216 0.0639683679 0.0677328482 0.0042573428 0.0717505068 -0.0375986882 0.0334149301 0.0250133239 -0.0532599390 -0.0511045456 -0.0299139507 -0.0080693271 0.0142160431 -0.0087915249 0.0301057473 -0.0413856134 0.0101814335 0.0661846697 -0.0685590580 0.0557452887 -0.0004972449 -0.0006661394 0.0346619412 0.0717437342 0.0362891294 0.0869309753 0.0862849653 0.0813673511 -0.0034429037 0.0007805103 0.0057138638 0.0518221818 0.0645306930 -0.0594457127 -0.0402648859 -0.0012372292 -0.0215894338 0.0464452617 0.0309084803 -0.0013322080 0.0147873322 -0.0293001272 -0.0395043790 -0.0314007849 -0.0144599387 -0.0252414979 0.0015333474 0.0674835816 0.0497941040 0.0427053235 0.0264922827 -0.0628209040 0.0292002689 0.0231189374 -0.0538387895 -0.0276720412 0.0384595208 0.0178632401 0.0042507807 0.0122927129 0.0337748714 0.0794088691 0.0573366992 -0.0183718242 0.0146236029 0.0319984816 0.0391378738 0.0916055366 0.0255387928 -0.0090982607 -0.0249707997 0.0002516895 -0.0270666722 -0.0077733686 -0.0204476751 -0.0018137329 -0.0408989415 0.0390500128 -0.0051382058 0.0834595412 0.0594300143 0.0730207488 0.0127549246 0.0324835666 0.0587119423 0.0221581589 0.0094281714 0.0309823565 -0.0136399381 -0.0242094565 0.0356134139 0.0222783629 0.0076774023 -0.0577684492 -0.0750917345 -0.0234229472 0.0307667945 -0.0686490834 -0.0581994578 -0.0393359214 -0.0341990516 -0.0194334704 0.0244014896 -0.0263673458 0.0508194044 -0.0454104841 0.0294203442 -0.0257354286 -0.0023731950 0.0635183603 0.0093721412 0.0028188541 0.0336526781 -0.0398412235 0.0084405802 0.0719976947 0.0687830597 0.0672609359 0.0656857267 0.0399455391 0.0887401104 0.0617008805 0.0179481991 0.0574492216 0.0246301312 -0.0119059468 -0.0173690207 0.0138156768 0.0484410077 -0.0192794409 -0.0247207265 0.0638419911 -0.0002334899 0.0175014194 -0.0236375276 0.0141615607 0.0146791115 0.0549239628 -0.0110324631 0.0460500382 -0.0448991247 0.0585449226 0.0058746827 -0.0273936540 0.0273603741 -0.0055670543 0.0219963770 0.0493951105 0.0002602414 0.0846075043 0.0041942964 -0.0432916470 0.0010590622 0.0542273633 -0.0448946729 0.0081080850 0.0975616127 0.0645233989 0.0117485896 0.0413323343 0.0792459249 0.0817874074 0.0467426591 0.0827350542 -0.0072551407 0.0347349867 0.0420955233 -0.0096847909 0.0169627741 -0.0344835259 0.0028565698 0.0355733559 -0.0102538904 0.0274153315 -0.0372950733 -0.0574010797 0.0315163136 0.0207103603 -0.0251461454 0.0695323125 0.0727858171 0.0747275874 0.0063887169 0.0802558064 -0.0275017358 0.0256478433 0.0270929057 -0.0246579908 -0.0519443005 0.0150444470 0.0104309358 -0.0253710337 -0.0539551005 -0.0750718117 0.0052311355 0.0146559998 0.0872912258 0.0450387523 -0.0034042750 0.0310812928 0.0029274721 -0.0234301127 -0.0169824250 -0.0471260659 0.0562484823 0.0166380014 -0.0142281689 0.0294693522 0.0232793763 -0.0054814774 0.0102771232 0.0234326944 0.0112589588 -0.0236947834 -0.0335628837 -0.0285840780 0.0368013978 -0.0583737530 0.0383211151 0.0151607925 -0.0135850171 0.0149699645 0.0262556449 0.0993439555 0.0190869458 0.0554665700 0.1118907258 0.0030992471 -0.0018309760 0.1004430056 0.0924551785 0.0551877581 0.1104319766 0.0214052349 0.1064800471 0.0315307006 0.1066309661 -0.0103599848 0.1050635651 0.0447728708 -0.0915080309 -0.0947257578 0.0552622303 -0.0304301530 -0.0900987461 0.0252229832 -0.0425536893 -0.0096037611 0.0398520939 -0.0612806603 0.0225247312 -0.0376779027 -0.0498238318 -0.0122141950 0.0144768059 0.0373552851 -0.0415822268 0.0084766718 0.0014748320 0.0851518735 0.0353443399 0.0841155499 0.0510215312 0.0749366060 0.0681761876 0.0033779868 0.0683895126 -0.0725533888 -0.0524002425 -0.0177200343 0.0043412102 0.0063618384 0.0514827333 -0.0002033715 0.0276049525 0.0049533751 0.0303084552 -0.0284261685 -0.0726213753 -0.0192698017 0.0707845390 -0.0419318564 -0.0173190050 0.0406909250 0.0120165683 0.0550624169 0.1014467627 0.0812808648 0.0664058998 0.0402381085 0.0980392992 0.0312512852 0.1065928489 0.0967698991 0.0552309789 0.0607160591 -0.0631950274 -0.0159850437 0.0898007229 -0.0222694539 0.0594296567 0.0672956482 0.0767397434 -0.0167650785 -0.0415354185 -0.0749805495 -0.0294032451 -0.0491600707 -0.0728823915 0.0627044886 0.0535587035 -0.0160535090 -0.0160687976 -0.0351417586 0.0310188308 -0.0193660818 0.0320069417 -0.0154821370 0.0273423232 0.0191670433 0.0010987022 -0.0071130642 0.0085916752 -0.0691104829 0.0752964169 0.0348961614 -0.0598119870 0.0793533623 0.0700460076 0.0062525445 0.0518321991 -0.0381898805 -0.0069102379 0.0512000807 0.0375338234 0.0119152442 0.0327999219 0.0589463040 0.0513259992 -0.0570178926 -0.0385847613 0.0196562335 0.0408173241 -0.0615779832 -0.0800128728 0.0000457350 -0.0339367688 -0.0885145813 0.0476187766 -0.0333783478 0.0071247672 0.0671672076 0.0118163107 -0.0310415309 0.0481118150 0.0133954985 0.0597114936 -0.0425245985 0.0042721243 -0.0345319547 -0.0429696813 -0.0116078276 0.0268926006 0.0219602436 -0.0147193400 0.0233403817 0.0069990600 0.0691916719 0.0026469373 0.0397323705 0.0433243699 0.0914651453 0.0094821751 0.0034591076 -0.0087491721 0.0038511967 0.0296367276 0.0769828632 0.0046316436 0.0541579723 -0.0229193233 0.0545200258 0.0285111051 0.0400391631 0.0126173533 0.0394601747 0.0153009268 0.0319038555 -0.0296803191 -0.0217126366 -0.0212647244 -0.0061653634 -0.0218759310 -0.0373774618 -0.0127909025 -0.0797766745 0.0415498763 0.0170033388 -0.0303050932 -0.0150241023 0.0779418498 0.0258588437 0.0245981850 -0.0045674127 -0.0092299609 0.0057995692 0.0507461019 0.0180721115 0.0392197371 -0.0161006991 0.0843247250 -0.0186168179 -0.0041459952 0.0102399243 0.0330526680 0.0361698829 -0.0269269757 0.0605054423 0.0439616255 -0.0497684069 0.0437343083 -0.0732132867 -0.0204603449 -0.0581633933 -0.0483933501 -0.0164583959 0.0632942021 0.0138845239 0.0144910533 -0.0173444096 -0.0325183533 -0.0492521413 0.0127939386 0.0555331036 -0.0272437949 0.0013209167 -0.0103804376 -0.0098333461 0.0448918343 0.0086089596 0.0062255776 0.0414675958 0.0972965807 0.0609695315 0.0752559155 0.0626371130 0.0423398875 -0.0038245197 0.0533808544 0.0722251981 -0.0119046457 0.0231840964 0.0146358386 0.0754062831 0.0648784563 -0.0165685713 0.0910722464 0.0000706836 0.0741756409 0.0098556038 0.1012179479 0.0916007087 0.0278016608 0.0011828040 0.0242889877 0.0499335639 0.0513014123 -0.0183720365 0.0438216962 0.0725750700 0.1090801954 -0.0092056878 0.0214180909 0.0914897621 -0.0176720843 0.0585441068 0.0846939459 -0.0345301516 0.0224157684 -0.0141440220 0.0098156594 -0.0036158927 -0.0401324667 0.0633680150 0.0470249914 0.0773804262 -0.0226465426 0.0160670485 -0.0107599301 -0.0352992006 -0.0352141522 0.0239699222 -0.0227247681 0.0523396805 0.0001343828 0.0070818206 0.0458420143 0.0346316211 -0.0315239727 -0.0232831910 -0.0086048609 -0.0286130942 0.0173917338 0.0411381982 0.0178635214 0.0071307202 -0.0284480229 0.0667588040 -0.0551271290 0.0069732675 0.1102746651 0.0778751373 -0.0148880454 0.0776066035 0.0572882183 0.0993599668 0.0277654622 0.1104469076 0.0889828950 -0.0034208468 0.0690790415 0.0692267120 0.0891269296 0.0976608917 0.0026337514 -0.0009097193 0.0256615672 0.0110258535 -0.0033643411 0.0809186026 0.0301077403 -0.0188931227 0.0425620638 0.0145223560 0.0434325524 -0.0322253741 0.0694337934 -0.0437765792 -0.0000122200 0.0045415726 -0.0481436253 0.0112960748 0.0321583487 0.0454594903 -0.0355640203 -0.0372159518 0.0969348848 0.0067824721 0.0769935474 0.0688717961 0.0215663817 -0.0079537174 0.0390440784 0.0908223987 0.0535728075 0.0462401621 -0.0226836503 0.0411916971 0.0077505177 -0.0003101533 0.0412574448 -0.0142780822 0.0568747707 -0.0017478849 -0.0200491808 0.0351188444 0.0017707048 0.0351508223 -0.0283407811 0.0616239309 0.0840431079 -0.0025380098 0.0729645565 -0.0019043813 0.0141509268 0.0268826857 0.0079138270 0.0403453261 0.0413327068 0.0708467364 0.0386702046 0.0556817353 0.0657728538 0.0398325808 0.0131708356 -0.0013085161 0.0211968403 -0.0538217053 0.0153100537 -0.0055329604 0.0705326051 -0.0122866835 -0.0194199309 -0.0390234627 0.0051107230 0.0297818426 0.0330524892 0.0376676060 0.0210384745 -0.0241900161 -0.0333507061 0.0478791408 0.0206031594 0.0203096531 0.0272338018 0.0466703884 0.0523676984 -0.0388691388 0.0401721038 -0.0350138806 0.0121979527 -0.0097915884 0.0143683860 -0.0402982160 0.0190688279 0.0748548284 0.0355234034 0.0452348702 -0.0222153775 -0.0254098326 -0.0507790744 -0.0373443626 -0.0071797469 0.0086732153 0.0103875007 0.0675230399 0.0033500316 0.0222546086 0.0012347075 -0.0258716345 -0.0469739735 -0.0225082412 -0.0556225963 -0.0089404797 -0.0399058387 0.0173853114 0.0634106919 -0.0132272374 0.0232131500 0.0543806218 -0.0139790289 0.0173202828 0.0041221497 0.0165570211 0.0599263273 -0.0203092862 0.0558672883 -0.0729877651 0.0431820117 -0.0120511232 -0.0550591871 -0.0086381994 0.0326264240 0.0007365531 0.0238967109 0.0559562631 0.0172118619 -0.0264891852 0.0054650297 0.0853702202 0.0847427696 0.0486642346 0.0701876804 -0.0005094844 0.0925659463 0.0041817655 0.0439988449 0.0223052520 0.0525679626 0.0044879164 0.0305182599 -0.0331119038 0.0011872571 0.0331888907 -0.0640908927 0.0191475768 -0.0485850275 -0.0051657329 0.0245000757 -0.0180504657 0.0108887842 -0.0423321873 -0.0708430409 -0.0650034994 -0.0206379034 -0.0161934067 -0.0745082125 0.0326471329 0.0505605191 -0.0466321073 -0.0242317710 0.0980982929 0.0852413848 0.0649387836 0.0393540785 0.0731296688 0.0693036094 0.0228589326 0.0262596700 -0.0383298360 -0.0169666484 0.0906653330 -0.0405818708 0.0123325260 0.0146103790 0.0441107713 -0.0236651022 0.0366323628 0.0176292136 -0.0518132299 0.0012318738 -0.0353384465 0.0163706802 0.0114700720 0.0254530553 -0.0058347508 -0.0065731923 0.0585443452 0.0328239352 0.0298913606 0.0437969193 0.0210493766 0.0470678881 0.0150982514 0.0923921019 0.0498521961 0.0825233757 -0.0153625309 0.0367975570 0.0841943100 0.0251049437 0.0671482906 0.0990871489 0.0328256600 0.0848215148 0.0884181112 -0.0186227430 0.0653435811 0.0443198197 0.0782144368 -0.0017267828 0.0319787487 0.0404220037 -0.0158232749 0.0195489265 0.0264943503 0.0124097504 0.0760550797 0.0857855007 -0.0081775645 0.0588635467 0.0511861071 0.0398018397 0.1044723988 0.0525663942 0.0659755692 0.1066819429 0.0290353615 0.0964730754 0.0762880892 0.0080201933 0.1000906006 0.0643772632 0.0331707262 0.0534228049 0.0417206027 -0.0599560738 0.0639308095 0.0014414601 -0.0351045020 -0.0208215676 0.0158819985 -0.0289082415 -0.0567187965 0.0153445108 0.0691212565 -0.0413040109 0.0823713690 0.0153081948 0.0813351348 0.0167947952 0.0126684718 -0.0541380197 -0.0415070578 -0.0153276939 0.0345045663 -0.0437169969 -0.0649855286 -0.0459732711 0.0467648953 0.0278854668 0.0560508668 0.0004448416 -0.0201558731 0.0264122188 -0.0054851766 0.0125185559 -0.0107816728 -0.0318784453 -0.0844950452 -0.0090163490 -0.0059552486 0.0141457599 0.0111059370 -0.0021877976 -0.0741205215 -0.0105151990 -0.0171379317 -0.0683880523 -0.0668543503 -0.0209833719 0.0105140489 -0.0625597462 -0.0753007159 0.0432546400 0.0073511363 0.0141645558 0.0489936732 0.0878723338 0.0427991115 0.1062019020 0.0663557053 0.0461984910 0.0451159365 0.0038973556 0.0050366097 -0.0171547160 0.0125332205 -0.0141771585 0.0603789315 -0.0251347851 -0.0610198528 -0.0050831013 -0.0198392756 0.0162535887 0.0233315043 -0.0095057152 0.0156773906 -0.0200358741 0.0460737236 0.0722277761 0.0487145223 0.0148842717 -0.0044439347 0.0349984355 -0.0301044099 0.0426998734 0.0625877157 -0.0730875880 -0.0142969359 0.0082193650 -0.0368871130 -0.0055678603 0.0520215817 0.0009362661 -0.0255551450 -0.0172824375 0.0602265634 0.0397168472 0.0032831456 0.0173424687 0.0258655902 0.0218718015 -0.0228289701 -0.0793292671 0.0111060543 -0.0232888721 0.0029019127 0.0243458524 -0.0652243569 -0.0248495024 0.0266016684 0.0513792001 -0.0213978812 -0.0068621277 -0.0288216081 -0.0791315436 -0.0151478425 -0.0304443073 0.0507145263 0.0174153503 -0.0398062728 0.0388354957 -0.0063360729 -0.0394417197 0.0586695969 -0.0216325093 -0.0435421355 0.0764301419 0.0204085968 0.0348245949 0.0461455844 0.0074287890 -0.0395011306 0.0304172914 0.0381671749 0.0489140004 0.0089586657 0.0268805996 -0.0032916898 -0.0100399973 -0.0547173247 -0.0267665535 0.0374766961 0.0258150082 0.0057977377 -0.0155541366 -0.0229513925 0.0599146113 -0.0298293699 -0.0291942675 -0.0049355854 -0.0453132987 0.0189379267 -0.0136352722 0.0171170849 0.0606086701 -0.0028076435 0.0568303987 -0.0251808073 0.0416509360 0.0352821536 -0.0274867117 0.0053270180 0.0553550757 0.0418139845 -0.0559873320 0.0433861315 0.0429250188 -0.0342295691 -0.0079977280 -0.0008837341 -0.0018414621 0.0088354172 0.0696921796 -0.0321905427 -0.0393302217 0.0413286090 -0.0195858739 -0.0423080474 -0.0348398201 -0.0082931062 -0.0620008968 -0.0987845063 0.0158232599 -0.0531005971 -0.0239797011 0.0049871947 -0.0043747476 -0.0314208381 0.0044565736 0.0185386166 -0.0301267356 0.0286572352 -0.0033629644 -0.0557980165 -0.0032724284 -0.0109734386 0.0094744135 0.0169917904 -0.0347653739 0.0008410935 0.0284331776 0.0350965969 0.0090147965 -0.0223188642 0.0288127065 -0.0041765613 -0.0637577325 0.0439544618 0.0102295252 -0.0099255824 0.0669999123 -0.0441922508 0.0496387780 0.0520543419 0.0175376292 0.0055992450 0.0556363724 -0.0266580749 0.0172521658 0.0034527390 0.0297112502 0.0352094918 0.0151809556 0.0189116262 0.0601559691 -0.0094311098 0.0243435744 0.0226282701 0.0598264150 0.0304971952 -0.0217018742 0.0535606630 0.0484751798 -0.0286380015 0.0656497627 -0.0099247377 0.0392419398 0.0532674566 0.0245269593 0.0053299707 -0.0616667308 0.0102932621 -0.0621043704 0.0525769964 0.0479394943 0.0578504056 -0.0030628794 0.0529037453 0.0833633542 0.0027386423 0.0393357910 0.0896448046 -0.0475160927 0.0329238288 -0.0053102090 -0.0454197451 -0.0058845757 0.0810041651 0.0416572206 0.0066014794 0.0229913145 0.0974330157 0.0275410395 0.0410495549 0.0795951486 0.1008708179 0.0568593033 0.0469860360 0.0661509484 0.0754382014 0.0104819080 0.0299432687 0.0289478246 -0.0043300050 -0.0754581988 -0.0150586907 0.0307059940 0.0255290009 0.0317526460 -0.0458985418 -0.0103230597 0.0424151681 0.0240385365 -0.0059139947 -0.0186683536 -0.0268129278 0.0166534986 -0.0201219879 0.0052068671 -0.0448159315 -0.0693304613 -0.0294724740 0.0370273143 0.0115497988 -0.0219127908 -0.0045681531 -0.0081801824 -0.0122126788 0.0289661624 0.0248620734 -0.0302505009 -0.0292307418 0.0461584553 -0.0270917267 0.0557746477 0.0984523669 0.0724622607 0.0123843821 0.0310355183 -0.0311886650 0.0683732554 0.0108725578 -0.0144929104 0.0691084191 -0.0384375826 0.0281617455 -0.0171585344 -0.0322180614 0.0048909769 0.0492702089 0.0029249068 0.0248025022 -0.0497062206 0.0186685640 -0.0122451624 0.0763043165 0.0751559958 -0.0279161800 0.0463178493 0.0693666264 0.0752255470 0.0146795213 0.0387655087 0.0608189888 0.0390611775 0.0086075095 0.0377737917 0.0806988478 -0.0207484327 0.0587000661 0.0626856983 0.0791810676 0.0374081656 0.0382236727 -0.0083206417 0.0223726388 0.0743073523 0.0268722419 -0.0199661423 0.0146061536 -0.0434851907 0.0084397318 0.0366282910 0.0412995517 -0.0255701505 0.0315256678 0.0068697459 0.0462398902 -0.0157953594 0.0130596096 0.1061667427 0.0978467539 -0.0116974488 0.0618948899 0.0738941878 0.0008718586 -0.0047828779 0.0186562259 0.0350398794 0.0007220377 -0.0533519350 0.0603106469 -0.0448418893 0.0010575262 -0.0176417399 -0.0061508603 -0.0118082268 0.0452283882 -0.0048142951 -0.0105445953 0.0275352038 -0.0115265213 0.0479650535 0.0521904454 -0.0242995806 0.0454454198 -0.0103547163 0.0977333710 0.0830802992 -0.0022286132 -0.0031429594 0.0410966240 0.0523883849 -0.0292529799 -0.0147799570 0.0981626138 -0.0304452796 -0.0123589104 -0.0307137165 0.0182812139 -0.0151411491 -0.0172787998 0.0039450065 -0.0245341118 -0.0665212050 -0.0362149850 -0.0034195681 -0.0344873853 0.0114016095 -0.0108002815 0.0162671693 -0.0425904244 -0.0459516644 -0.0004090588 -0.0482918583 0.0400798097 0.0628965870 -0.0120049585 0.0393353067 -0.0119415810 0.0508033782 -0.0346068740 -0.0222231150 0.0427111648 0.0366409980 -0.0453502908 0.0307984669 0.0084990384 -0.0431640223 -0.0352234803 -0.0509931296 0.0007537317 0.0279249139 0.0348142944 -0.0328786187 -0.0366779901 0.0399932861 0.0154442126 0.0491041131 -0.0414056852 0.0386370681 -0.0133584291 -0.0024731962 0.0168259218 0.0491418280 -0.0523543805 -0.0629617646 0.0289676711 -0.0456551351 -0.0052112699 -0.0283911712 -0.0477740057 -0.0363788120 0.0043346668 -0.0010554002 0.0074181026 -0.0267986972 0.0511197858 0.0104596308 0.0538361631 0.0506398305 -0.0278577600 0.0288026743 0.0330799147 0.0074607730 0.0406507514 -0.0490400083 0.0295670014 -0.0566144809 -0.0130450726 0.0758906007 -0.0326890871 -0.0133204926 -0.0172211621 -0.0182502996 -0.0075036334 0.0760302991 0.0707276165 -0.0170720909 -0.0142302932 0.0582368709 0.0003164336 0.0553628430 -0.0003507398 -0.0320805274 0.0228808206 -0.0085900184 0.0293121859 -0.0501723401 0.0502465107 0.0396574698 -0.0750280544 0.0109238280 -0.0323064588 -0.0708570778 0.0521288402 -0.0256499834 0.0243132599 0.0631677136 0.0473437868 -0.0554799847 -0.0159741957 -0.0044045360 0.0095179668 0.0399428867 0.0598442070 0.0384116359 -0.0255518313 -0.0427162834 0.0508155599 0.0345806256 0.0642338097 0.0369576775 0.0275910776 0.0710372552 0.0847414434 0.0756117031 0.0636291876 0.0507935397 0.0383685082 -0.0154518634 -0.0077852001 0.0578237474 -0.0180536415 -0.0610283539 0.0605171882 0.0114153922 0.0325906351 -0.0078005739 -0.0425486267 0.0161833726 0.1035778001 0.0857671946 0.0896222219 -0.0030547399 0.0741406307 -0.0308785532 0.0024314355 0.0939493105 0.0570583828 0.1016160548 0.0887065083 0.0633822307 0.0307913404 0.0078918142 0.0052083754 -0.0063937018 0.0234311689 -0.0135713192 0.0168624669 0.0508162826 0.0880910009 0.0255914051 0.0210753586 0.1021845266 0.0163814239 0.0202193428 0.0694161132 -0.0267373864 0.0536711700 0.0302025918 -0.0133263916 -0.0217230022 0.0944863707 0.0582968667 0.0073370901 -0.0028143052 0.1079071462 0.0647436380 0.0460914932 0.0676184073 0.0881452709 0.0922689214 0.0491755977 0.0930663571 0.0794777572 0.0404604115 0.0683192313 0.0584183671 0.0842534006 0.0361947492 0.0408010930 0.0829401687 0.0595315583 0.0399034321 0.0211550985 -0.0207384732 0.0055419491 0.0724681243 0.0269874763 0.0182893164 0.0109566543 0.0949348286 0.0778552368 0.0524931699 0.0241419990 0.0127388975 -0.0152446171 -0.0241380073 -0.0109097268 0.0557734258 0.0116358735 -0.0314594992 0.0001103995 0.0489363447 0.0068063545 0.0823534504 0.0731753409 0.0694830120 -0.0707865581 0.0392977782 -0.0244058259 0.0501448438 -0.0430104509 0.0858054236 0.0196502395 -0.0180078465 -0.0099597666 0.0998283476 0.0064256168 0.0718557760 -0.0607308149 -0.0015988327 0.0515648685 -0.0341516398 0.0364033096 -0.0127100889 0.0911848992 0.0230357777 0.0029633732 0.1109908968 0.0697603449 0.0175958872 0.0672212988 0.0385767817 0.0262195542 0.0531460196 0.0971455872 0.0855978057 0.0022503133 0.0228850003 -0.0069580511 -0.0656952858 -0.0271288883 -0.0280739237 -0.0586572140 -0.0154645564 -0.0205708221 -0.0870154724 0.0125030214 -0.0484788381 -0.0678197667 -0.0541830957 -0.0119556421 0.0347745866 0.0118504735 -0.0667790845 0.0169293731 -0.0262582116 -0.0640209541 -0.0541581474 -0.0031409282 -0.0289639551 -0.0447852463 -0.0146673918 -0.0195535254 0.0589647964 0.0143850241 0.0546284281 0.0271926094 0.0467742458 0.0037581059 -0.0756721273 0.0246171560 0.0188252777 -0.0218308829 0.0338931046 0.0663336217 0.0086055817 0.0162239522 -0.0151721528 0.0252612308 0.0519439392 0.0275026169 -0.0736873448 -0.0474584140 0.0055346843 -0.0728338808 -0.0488126315 0.0094191618 -0.0435603634 -0.0083840098 -0.0086998744 0.0663474575 0.0828086361 0.0397620425 -0.0555983223 -0.0204539821 0.0403439477 -0.0409002714 0.0211744998 -0.0436323322 0.0588947311 0.0153216580 -0.0277839117 0.0196180958 0.0294544864 -0.0058296872 -0.0516710505 0.0049726646 0.0915059447 -0.0055334000 0.0689583421 0.0631728247 -0.0488835163 -0.0723039359 -0.0211971216 0.0114141097 0.0199783240 -0.0239979904 0.0134898694 -0.0215660147 0.0591860041 0.0180689823 -0.0210724510 0.0144225219 -0.0658491030 -0.0722351968 0.0350902118 0.0078765927 0.0841646045 0.0241069552 -0.0004126836 -0.0096171768 0.0050004213 -0.0587608367 -0.0571301393 -0.0094519369 0.0345336944 0.0654741302 0.0501770042 -0.0404524170 0.0571753383 0.0487395748 -0.0491504408 -0.0347006060 0.0351552665 0.0853824243 0.0763171241 0.0589476526 0.0340319797 -0.0100480439 0.0247799400 -0.0226572417 -0.0662558377 -0.0589195415 0.0132088400 0.0446778499 0.0148757529 0.0715264082 0.0631315112 -0.0216647852 0.0311939474 0.0725513920 0.0940342844 0.0476541743 0.0196139030 0.0095478101 0.0575403646 0.0795095861 -0.0252106879 0.0868720114 0.0949878022 0.0718039572 0.0539041236 -0.0032985411 0.0777881518 -0.0038275090 -0.0038097340 -0.0133290384 -0.0880705416 -0.0513952225 -0.0422946587 0.0307745785 0.0951042995 0.0738932267 -0.0586361587 0.0053899130 0.0530138165 -0.0456946716 0.0274245590 0.0167459212 0.0574918203 -0.0234568082 -0.0656457171 -0.0174397454 -0.0075323018 -0.0539251715 0.0271123182 0.0202822015 0.0634001568 0.0677215531 0.0247617327 -0.0110475440 0.0490790792 0.0966929272 0.0378495902 0.0758413151 -0.0016221366 0.0687661469 0.0593618043 0.0531938300 0.0208380483 0.0148814209 -0.0404130369 -0.0247449335 -0.0213120114 -0.0245669596 -0.0746716261 0.0185890347 0.0517154895 0.0605632737 -0.0001309126 0.1003055796 -0.0241521336 0.0380832404 0.0170130003 -0.0626600906 0.0158455484 0.0347208306 0.0039450102 0.0254903380 0.0090227369 0.0313546658 0.0954201221 0.0581814870 0.0195829496 0.0584221631 0.0956216380 0.0696496516 0.1001781747 0.0789157301 0.0192908905 0.0004880883 0.0940128714 0.1043839753 -0.0467233062 0.0259304736 -0.0047123325 0.0124689965 0.0151724769 0.0453162119 0.1064921021 0.0034561136 0.0003544466 0.0408440642 0.0252495985 0.0330027267 0.0276296660 -0.0296029914 0.0088249380 0.0449601859 0.0268324204 -0.0655506775 0.0613258705 0.0237963181 -0.0093530761 0.0975598022 0.0808166042 0.0302422475 0.0553975441 0.0500379689 0.0022372811 0.0737401843 0.0913696885 0.0412884839 0.0607061088 0.1018241122 0.0109601626 0.0149754304 0.0843471363 0.0259006768 0.0413247272 -0.0162504185 -0.0341106877 0.0297897402 0.0359894671 -0.0186903011 -0.0013485623 0.0297866818 -0.0034357596 0.0612037964 -0.0292508528 -0.0327284336 0.0192291122 -0.0246531162 -0.0141931642 0.0076786308 -0.0369123742 0.0194065589 0.0048244954 0.0411154553 0.0679702684 -0.0291810334 0.0501271114 0.0341642722 0.0008158657 0.0372440368 0.0456910133 -0.0416701436 0.0240543615 0.0406659767 0.0212978385 0.0361712016 -0.0016331939 0.0037591862 0.0489650480 -0.0299553964 0.1113282442 0.0804035887 0.0651299432 0.0741186365 0.0754038692 0.0195364095 -0.0097675445 0.0913822874 0.0478761904 0.0014319044 -0.0231609140 0.0325182974 0.0150163257 -0.0073194541 -0.0368196405 0.0368657224 -0.0610562675 0.0031822778 0.0834292620 -0.0113117816 0.0527241975 0.0201587323 0.0340511315 0.0416643582 0.0817256570 -0.0204022974 0.0068597039 0.0784280226 0.0384222791 0.0276709720 0.0011416044 0.0361803956 0.0654835999 0.0591913313 0.0528210141 0.0779213235 -0.0266744923 0.0590317585 0.0597432964 -0.0468139239 -0.0090526696 0.0339197293 0.0569290183 0.0131168645 0.0204800200 0.0340473428 0.0529893264 0.0149404248 0.0785461292 -0.0150561184 -0.0123108020 -0.0066701532 0.0167989656 0.0106435185 -0.0343422480 0.0148930317 0.0111282775 -0.0127553688 0.0058247992 -0.0336096212 -0.0078445747 -0.0585331246 0.0427845716 -0.0315210819 0.0372721776 0.0198581070 -0.0154242776 -0.0531879477 0.0489729643 0.0222394876 -0.0013368044 -0.0047096689 0.0801054016 0.0328786299 -0.0158335976 0.0086289383 0.0473694205 0.0631608367 0.0277188700 0.0199346449 0.0573120899 -0.0464598387 0.0396982953 0.0022881641 -0.0414585136 0.0436600260 0.0204086397 -0.0462793186 -0.0302881673 0.0124690384 0.0042996970 -0.0443888120 0.0691335499 -0.0583410598 -0.0592573620 0.0323007479 -0.0096328082 0.0060844887 0.0267490596 0.0713112652 0.0008284980 0.0355053023 0.0370063223 0.0285387654 0.0675211623 0.0247906875 -0.0141490214 -0.0160886459 0.0490118191 0.0476200916 -0.0106415674 0.0418572016 0.0187955350 0.0874515101 -0.0110040922 0.0460319743 0.0595531538 0.0128087718 -0.0356641412 0.0573577955 -0.0252643377 -0.0083788913 -0.0535001121 0.0497749522 -0.0660254508 0.0419380628 -0.0167441741 0.0282523800 -0.0084531941 0.0235066134 0.0241783727 0.0298644807 0.0105083184 0.0079650609 0.0461928919 0.0556067713 0.0030458288 -0.0011870760 0.0798481330 -0.0168329328 0.0358782932 0.0282408446 -0.0002155743 -0.0147909056 0.0490526482 -0.0014355163 0.0433257818 0.0022418809 -0.0343701728 0.0044408184 -0.0228466447 -0.0126623921 -0.0129218530 -0.0518046282 0.0543373339 -0.0281877480 -0.0467253029 0.0258061029 -0.0210852139 -0.0576047152 0.0024789528 -0.0108778179 0.0955842137 0.0124893161 0.0063950829 0.0380945802 0.0010267731 -0.0032630269 0.0279597677 0.0448564552 0.1146638468 0.0437006578 0.1101464778 0.0812842920 0.0174135473 0.0851984099 0.0599514656 0.0275542103 0.0595724247 0.0603801198 -0.0316857994 0.0495460220 -0.0139965266 0.0128655387 -0.0435376987 -0.0158907771 0.0318580009 -0.0638094768 0.0249779075 0.0928261280 -0.0010369732 0.0155898873 0.0331921056 0.0544732362 0.0248015448 0.0767178759 0.0636764243 0.0653172806 0.0782753378 -0.0016844429 -0.0033987972 0.0978820696 0.0765666589 -0.0235332996 0.0555143915 -0.0259409267 -0.0156929139 0.0827895924 0.0705985203 0.0853690282 0.0031698167 0.0576250255 0.1129663587 -0.0107980920 0.0874215886 0.1033497453 0.0402645580 -0.0124668246 0.0754631683 0.0252070408 0.0556032844 -0.0377608761 0.0724324808 0.0305868387 -0.0119608268 -0.0132188741 -0.0318725705 -0.0098915612 0.0942611024 -0.0430637859 -0.0400636606 0.0812335685 -0.0020069301 -0.0408237576 0.0846455917 -0.0239653550 -0.0324196517 0.0482303426 0.0046204366 -0.0459983535 0.0205072351 0.0211255122 0.0465043075 0.0658870190 0.0451357625 0.0368315727 0.0924325436 0.0490882322 0.0070626847 0.0190297402 0.0923183933 -0.0165923089 -0.0237283092 0.0398411006 0.0074638329 0.0371935181 -0.0012458431 -0.0233853646 -0.0072550341 -0.0718422532 -0.0691962317 -0.0202121492 -0.0078261346 0.0140432054 0.0482371710 0.0249428935 0.0408896767 -0.0080776457 -0.0260502696 0.0008126296 0.0177207440 0.0179304816 -0.0177504793 -0.0574750192 0.0023312052 0.0035693592 -0.0534700193 -0.0001913544 0.0046257395 0.0186839253 0.0366699919 -0.0102043189 -0.0117455777 0.0111727789 0.0545835271 -0.0398257598 -0.0486029722 0.0277064852 0.0025251324 0.0900042579 0.0093878191 0.0251634680 0.0274427924 0.0426875986 -0.0152998110 -0.0187056568 -0.0354269557 0.0130397640 -0.0054422109 0.0534688085 0.0321807079 0.0079267686 0.0026986955 0.0334945992 0.0662371591 0.0513552949 -0.0292278714 -0.0234005731 0.0440852046 0.0373947658 0.0897348449 0.0715874657 0.0224670246 0.0170913469 0.0881906077 0.0894595310 0.0944791660 0.0800406262 0.1034924313 0.0042424342 0.0156463049 0.0998206213 0.0172942933 0.0304453839 0.0318240821 0.0433682390 0.0687017366 -0.0147004537 0.0711624622 -0.0381816849 0.0858340114 -0.0091678677 0.0470713302 -0.0172464289 -0.0612371378 -0.0030522761 0.0031848799 -0.0272460598 -0.0270891357 -0.0322923064 0.0429082215 -0.0327923335 -0.0258721281 0.0065152752 0.0110696703 0.0551919267 -0.0455345884 0.0180993155 -0.0322793461 0.0404299013 -0.0014226888 -0.0101377768 -0.0236825719 -0.0248473361 0.0593807101 0.0059284358 -0.0187700633 0.0317252316 0.0655048192 -0.0395101719 0.0602997504 0.0931363925 -0.0162355006 0.0344830677 0.0931186005 0.0040537538 0.0508934073 0.0808082297 0.0003582522 0.0388465300 0.0612121448 0.0303590000 0.0290063526 -0.0275409464 0.0060282568 -0.0396208316 -0.0438907295 -0.0388369821 -0.0162374619 0.0228933822 -0.0477201156 -0.0254055168 0.0484309457 -0.0565528423 -0.0173220355 0.0236160010 -0.0549851097 -0.0341906510 0.0014405100 0.0204255506 -0.0507639311 -0.0296070445 -0.0042686351 0.0630641580 0.0047532627 0.0246502552 0.0256043617 0.0911152363 0.0251392648 -0.0044877930 0.1013764888 0.0155960890 0.0051992945 0.0084468322 0.0451835915 -0.0019939144 -0.0176317878 -0.0532262623 0.0066552423 0.0113907233 0.0485891216 -0.0661147833 0.0342334732 0.0699906945 -0.0251710694 0.0311499108 0.0122027118 0.0217096396 -0.0841124728 -0.0169197004 0.0655170754 -0.0954466015 -0.0714751408 -0.0057709399 -0.0511546619 -0.0326395631 0.0533780344 0.0061995266 -0.0251455233 -0.0128644649 -0.0054499963 0.0052816612 -0.0360120535 -0.0408589542 -0.0561114214 -0.0515113249 -0.0188709926 -0.0489016846 0.0184717700 0.0503236093 0.0152856857 0.0319566727 0.0519547798 -0.0111230472 -0.0189076159 0.0287773889 0.0324744694 0.0158429574 -0.0274093598 0.0083345864 0.0164379776 0.1056291685 0.0681278929 0.1064576954 0.0769018680 0.0114460643 0.0885869116 0.0519922972 0.0034767599 0.0377252623 0.0241008904 -0.0033472534 -0.0180540979 -0.0389239900 -0.0796546116 0.0454861857 0.0246213321 -0.0930136219 0.0446523204 -0.0299806576 0.0119025726 0.0067904829 0.0354770124 0.0234338678 0.0364111923 -0.0070457184 -0.0423889197 0.0197546761 0.0622458160 0.0828145742 -0.0051276921 0.0319700465 0.0289534573 -0.0399287045 -0.0252106879 0.0511399359 -0.0090428162 0.0304726176 0.0621786527 -0.0039514592 0.0354097560 -0.0003212004 -0.0073801442 0.0636503622 0.0632520393 0.0912982151 0.0882573053 -0.0113227097 0.0656835288 0.0154329957 -0.0416542403 0.0866673365 -0.0171232261 -0.0061578425 0.0258181188 0.0163537208 -0.0786203295 -0.0701537803 -0.0745407864 -0.0027886301 -0.0311348047 0.0006632960 -0.0810725242 -0.0161547624 0.0624124445 0.0274925828 -0.0177354291 0.0606788173 0.0521579497 -0.0534124784 -0.0087222653 0.0354314335 -0.0352040306 0.0066493489 0.0231458768 -0.0006558525 -0.0252566151 0.0128157157 -0.0843039453 -0.0585725009 0.0022452269 0.0099043045 0.0023386134 -0.0144252907 -0.0719690844 -0.0421352461 -0.0207412150 -0.0539416894 0.0612657666 0.0424835943 -0.0042326208 0.0511834919 0.0017071071 -0.0539821833 0.0016773448 -0.0244206153 -0.0314558297 -0.0425081737 0.0310479067 0.0536352135 0.0732288510 0.0488874428 -0.0040146657 0.0280245952 -0.0412779115 0.0427285843 -0.0012583183 0.0064384327 -0.0623699725 -0.0537495427 -0.0037790271 -0.0872652754 -0.0218816344 -0.0374844410 -0.0734478533 0.0069308341 -0.0268679392 0.0237073731 0.0138034020 -0.0272158869 0.0257657375 -0.0458154976 0.0210842453 -0.0537442006 0.0213619694 0.0445576571 0.0585996285 0.0502161570 0.0528957322 0.0475257821 0.0158934742 0.0361947492 0.0390595458 0.0249217916 -0.0274893213 0.0778719410 0.0252848640 -0.0414301008 0.0771835744 0.0510627963 0.0300280191 0.0228604171 -0.0444986187 -0.0483028255 -0.0115134828 -0.0057359049 0.0256155208 0.0230634250 0.0636942163 0.0212486498 0.0473920032 0.0852587447 0.0595825091 -0.0158433858 -0.0163009334 0.0103854630 -0.0654188395 -0.0617252775 -0.0102793425 -0.0084423991 0.0279402584 0.0620655790 0.0164860692 0.0586701259 0.0306701455 -0.0081355534 0.0158903319 -0.0273736361 0.0624011494 -0.0338126570 -0.0172508657 -0.0420301519 -0.0203294568 0.0316011794 -0.0078483224 -0.0801945180 0.0046745511 -0.0907343775 -0.0817828849 -0.0482062362 0.0509306416 -0.0084573915 -0.0269867312 0.0350280814 0.0310493335 0.0208819620 -0.0437099375 -0.0194918942 0.0179822836 0.0645880550 -0.0434542075 0.0499727800 -0.0284091495 -0.0175017864 -0.0290545244 -0.0036710717 0.0066760327 -0.0661398321 -0.0443120338 -0.0639971793 -0.0656375512 0.0408271849 -0.0507365763 0.0136513142 -0.0560124516 0.0184403434 0.0282447357 -0.0134405838 -0.0155312000 0.0274635889 0.0481031425 -0.0344274230 -0.0530454777 -0.0332357511 -0.0009393694 -0.0685280487 0.0379191637 0.0067057102 -0.0081075476 -0.0010712333 -0.0524047799 -0.0612842329 -0.0522135012 -0.0580053329 -0.0562962107 -0.0259095561 0.0329328403 0.0401282534 -0.0185845029 0.0259859320 -0.0146506261 0.0128843747 0.0358599685 0.0001845976 0.0455558673 0.0284171663 0.0334058627 0.0115106357 -0.0105405208 -0.0233236216 -0.0552544259 0.0485624187 -0.0217285734 0.0231320951 -0.0270466562 0.0525306948 0.0091013592 0.0178307500 0.0011057389 0.0530146733 0.0387194790 0.0287702624 -0.0274143368 -0.0264766384 -0.0047540162 -0.0494949408 -0.0407857373 -0.0134281814 -0.0384739488 0.0143396957 0.0281173736 0.0203832779 -0.0381493531 0.0099989427 -0.0019582254 -0.0551245250 -0.0030190595 0.0233391896 -0.0115410229 0.0401922278 -0.0140020996 0.0396141633 0.0228353273 0.0071375649 0.0435124598 -0.0096848402 -0.0081620282 0.0360907838 0.0004824995 0.0176241938 -0.0468486585 -0.0015768189 0.0180071052 -0.0543322489 0.0253438000 -0.0332267284 -0.0482584685 -0.0603019707 0.0454536118 -0.0788618997 -0.0388033241 0.0357177444 -0.0863331556 0.0161870532 0.0051488052 -0.0733588189 0.0172296483 0.0520521887 -0.0145026660 0.0727704018 -0.0205332041 0.0473618321 0.0427738316 -0.0082394145 0.0257848408 0.0062965220 -0.0249795299 0.0570709221 0.0187928379 0.0569231734 0.0674067587 -0.0256167445 -0.0154285487 0.0079678800 -0.0048634824 0.0484209210 0.0306693669 0.0337970182 0.0493020043 0.0840909481 -0.0151138082 0.0328011476 0.0744717121 0.0274769701 -0.0295678563 -0.0220204107 0.0113824960 -0.0268647131 -0.0202173684 0.0516103320 0.0473605543 0.0113450028 -0.0158699285 -0.0175822191 -0.0067004021 -0.0212214533 -0.0453139320 0.0061228587 0.0858941972 0.0401568450 0.0308752079 0.0620952509 0.0282004680 0.0315160230 0.0216499660 -0.0519562773 -0.0421004556 0.0235043913 -0.0566938855 0.0071268822 0.0766850784 -0.0069498359 0.0248043053 0.0866467580 -0.0172067210 0.0907975882 0.0219465699 0.0333605707 0.0387910120 0.0430584960 0.0067807445 -0.0578485467 0.0707917735 -0.0312632658 -0.0073764282 0.0223803334 -0.0146673135 0.0588441491 -0.0247948207 0.1079370230 0.0585257187 0.0612435974 0.0403090604 0.1107865423 0.0724222511 0.0563362241 0.0958046690 -0.0191708580 -0.0190190449 -0.0172506999 -0.0169596747 -0.0287862681 -0.0006013092 -0.0369415842 -0.0101581784 -0.0712502301 0.0208818931 0.0287348237 -0.0186080504 0.0713834167 0.0432618186 0.0710072741 0.0048671761 -0.0357414223 -0.0027060476 0.0469892845 -0.0500446111 -0.1117232069 -0.0458076485 -0.0880039856 -0.0654911995 -0.0339115709 -0.0525621288 -0.0326921828 -0.0085860370 -0.0590031780 -0.0769396648 -0.0643786415 -0.0278313253 -0.0327438340 -0.0073111281 -0.0891583562 -0.0615008734 -0.0014995305 0.0189806502 0.0033663844 0.0643192157 0.0128046498 0.0838616490 0.0681936741 0.0067739850 0.0897521153 0.0354160443 0.0235290881 0.0769559518 0.0319802389 -0.0270515960 0.0660193190 0.0481891036 -0.0676301941 0.0446523763 -0.0070545906 -0.0448331125 0.0375461355 0.0295915082 0.0581809506 0.0138355093 0.0295285005 0.0115605565 0.0354556590 0.0418422185 0.0846692398 0.0124371024 0.0773596093 0.0585507303 0.0764235109 0.0733226314 0.0885527208 0.0248872116 -0.0062841843 -0.0018628745 0.0195166096 -0.0199624542 0.0607691556 0.0420925543 0.0584519990 -0.0122716846 -0.0258905012 0.0634275153 0.0093454570 -0.0635948330 -0.0464026779 -0.0115825031 -0.0751199871 -0.0649497509 0.0157258362 -0.0290506240 -0.0813053548 0.0258524604 0.0198338218 -0.0103439409 -0.0370165110 -0.0026658769 0.0491637960 -0.0878561065 0.0117418366 0.0234366897 0.0163744111 0.0652102828 0.0684136525 -0.0030859523 0.0026670299 0.0219228342 -0.0218031090 0.0345187113 -0.0308186933 0.0714265332 0.0936377719 0.0532450937 0.0862531886 0.0591896139 -0.0212400239 0.0422930121 0.0185475908 0.0530544370 -0.0137966853 0.0298694931 -0.0087588616 -0.0104130628 -0.0426998846 0.0643285587 -0.0780314580 -0.0427267738 0.0362674817 -0.0520564765 -0.0400671102 0.0366631076 -0.0422306396 -0.0132244900 0.0207566693 -0.0538500771 0.0330485590 0.0056032501 0.0162095670 -0.0127448710 0.0372711830 0.0181237310 0.0689770132 0.0709933192 0.0224140603 0.0038916066 0.0313297920 0.0839449987 0.0733026415 -0.0416994393 0.0132387914 0.0544741973 -0.0054897694 0.0438054875 0.0609704405 -0.0197046809 -0.0619179308 0.0665740371 0.0793565437 -0.0084910300 0.0178401675 -0.0312657803 0.0305719133 -0.0126304161 -0.0457931682 0.0029197424 -0.0430554152 -0.0654809102 0.0522923842 -0.0617763810 -0.0449463725 -0.0181240495 0.0258639678 -0.0137477368 -0.0334701091 -0.0118369656 0.0074717607 -0.0073106405 0.0098055610 -0.0529699251 0.0182447117 -0.0233127754 -0.0211503953 0.0245975405 -0.0088061038 0.0642588809 0.0423903875 -0.0446031690 0.0073155328 -0.0360780358 -0.0097798239 0.0442343019 0.0276830904 0.0593591034 -0.0115104904 -0.0551788993 0.0306492168 -0.0318905264 0.0188541636 -0.0114093190 0.0658902079 0.0868126228 0.0565262735 -0.0084204534 0.0149092097 0.1051321477 0.0315767378 0.0896522775 0.1090933383 0.0108465282 0.0545488745 0.0809634402 -0.0009376882 0.0686454624 0.0893179253 -0.0105695585 0.0085605113 0.0041505527 0.0741161332 0.0428777039 0.0083400765 0.0152364392 0.0035851481 0.0168559253 -0.0095591769 -0.0290727839 -0.0066553946 0.0238046087 0.0221067537 -0.0304695237 0.0973796993 0.0816437006 -0.0216825921 0.0986784175 0.0485342145 0.0635915324 0.0565575659 0.0092213107 -0.0513722263 -0.0231849793 0.0316483676 -0.0510801151 -0.0372941084 0.0139443800 -0.0173181910 -0.0372284539 0.0532075688 0.0524606742 -0.0055514621 0.1011984274 0.0866400301 0.0150768533 0.0515312068 0.0136390608 0.0806230158 0.0568463877 -0.0094615156 -0.0782146677 -0.0570808239 -0.0264506955 0.0082100872 0.0446798168 -0.0452597253 0.0473845787 -0.0622613318 -0.0396487080 0.0197419710 0.0431153029 0.0229891986 -0.0238626804 0.0287837982 -0.0098658307 0.0116737336 -0.0724872351 -0.0537828282 -0.0779763684 -0.0442875512 0.0203485172 0.0281808302 -0.0039968230 -0.0000137501 -0.0200192630 -0.0677782595 -0.1037175208 -0.0226281155 -0.0879759789 -0.1127032265 -0.1056219563 -0.0429739617 -0.0656041801 -0.0945735052 -0.0188680012 0.0059632678 -0.0271901954 -0.0492603853 -0.0071118763 -0.0338216871 -0.0665369555 -0.0449122004 -0.0352148935 0.0595162883 -0.0009918271 0.0514050797 -0.0054738666 0.0527687036 0.0020615971 0.0513098761 -0.0117839435 0.0122897727 -0.1088611707 -0.0002772962 -0.0460885353 0.0057952967 -0.0820335597 -0.0829183087 -0.1132158116 -0.0074858489 -0.0920867100 -0.0006025404 -0.0809221715 -0.0440787449 -0.0349263400 -0.0897670984 -0.0954087079 -0.1052975729 -0.0967377350 -0.0896938369 -0.0070804581 -0.0427913368 -0.0588486530 0.0332004949 -0.0007342306 -0.0528653525 0.0288027786 0.0169655383 0.0438387990 0.0555470958 0.0242728181 0.0555944853 -0.0046239989 0.0154850669 0.0692364350 -0.0074532162 0.0798423812 0.0337055735 -0.0354234539 -0.0148670468 -0.0414689369 -0.0723554939 -0.0286640991 0.0170629583 -0.0519876592 -0.0937623531 -0.0819266513 -0.0616873577 -0.0460572168 -0.0122453254 -0.0321715362 -0.0899009779 -0.0000242910 -0.0417936593 -0.0249884669 -0.0637874007 -0.0043001417 0.0236151014 -0.0024397231 0.0754792541 -0.0159541015 0.0164088309 0.0835114643 0.0569942631 0.0572748668 -0.0402244553 -0.1106331423 -0.0903470665 -0.0256439894 -0.0301909987 -0.0444054753 -0.0163642652 -0.1092636883 -0.0779757351 0.0502774343 0.0269519631 0.0594512634 0.0072570825 0.0690727010 0.0688682571 0.0629237443 0.0497443415 0.0765078738 0.0048858919 0.0783827826 0.0479158536 0.0852622166 -0.0104879178 -0.0065141334 0.0639174730 0.0582035705 -0.0170744080 -0.0695844516 -0.0588995479 0.0205735378 -0.0198212657 -0.0891264975 0.0156965666 -0.0261785742 -0.0290469956 -0.0923174396 0.0417115018 0.0260950159 0.0206674580 -0.0216100309 0.0730450004 0.0530350246 -0.0035661806 -0.0299411993 0.0133458963 0.0852212533 0.0615283661 0.0757706314 0.0106186830 0.0282942802 -0.0120177558 -0.0093371999 0.0386611149 0.0750288740 0.0371575281 0.0821729153 0.0152404699 0.0369059145 0.0538594909 0.0018732349 -0.0046130354 0.0476369858 -0.0177147016 -0.0650341809 -0.0734994933 -0.0947907716 0.0046319165 -0.0945044234 -0.0608408861 -0.0212928001 -0.0794597119 -0.0382397696 0.0340637453 0.0145115647 0.0211944357 0.0847547129 0.0632135943 0.0639689490 0.0605811775 -0.0172803383 -0.0048360177 -0.0309430324 -0.0630798638 -0.1125026271 -0.0726123676 -0.0241661109 -0.0533391982 -0.1087973043 -0.0103628244 -0.0682615712 -0.0351228565 -0.0424235091 -0.0120190158 0.0089953076 0.0268191453 -0.0344851725 0.0161280688 -0.0138467299 -0.0114145465 0.0015547215 0.0684751347 0.0736645684 0.0799183920 0.0136304908 0.0596722886 0.0152599448 0.0265943222 0.0280018467 0.0454474129 0.0677123368 0.0848046020 0.0466218740 0.0816700235 0.0499940664 -0.0049948692 0.0427865535 -0.0009271792 -0.0282744560 -0.0241578259 -0.0613979250 -0.0579698496 -0.0008623621 -0.0218148716 0.0143300537 -0.0914172232 -0.0207809601 -0.0023544773 -0.0919723213 -0.0005916927 -0.0637299865 -0.0711723045 -0.0712057799 0.0295062065 -0.0137786558 -0.0391741991 0.0775184184 0.0290901978 -0.0099567845 0.0650723204 0.0713901669 0.0927387550 0.0723225549 0.0814318806 0.0857234076 0.0032157956 -0.0309924670 0.0005430182 0.0114509640 -0.0595663190 -0.0636406168 -0.0532886796 -0.0098523581 -0.0390045904 -0.0387509428 -0.0976776779 0.0366275348 -0.0776368976 -0.0520775393 -0.0648311004 -0.0773969963 -0.0184515100 -0.0864190981 -0.0193064008 -0.0838833749 -0.0700548589 0.0110768583 -0.0900092795 -0.0842212290 -0.0473812930 -0.0513527766 0.0303139929 -0.0810137093 -0.0239915159 -0.1048175469 -0.0652545616 -0.0803955197 -0.0918270350 0.0129346615 -0.0368156247 -0.0892393366 -0.0816611350 -0.0100249453 -0.0106834490 -0.0275696088 -0.0697070286 -0.0821464881 -0.0461557433 -0.0758034289 -0.0820625722 0.0136138583 -0.0431418866 0.0008020038 -0.0771809742 -0.0797469914 -0.0050098351 -0.0288580265 -0.0117967445 0.0206039511 -0.0112548051 -0.0374699794 0.0634328127 -0.0085878000 0.0534451976 0.0796433240 -0.0436339602 -0.0222563557 0.0693885908 -0.0369776078 -0.0199203249 0.0556096062 -0.0183073860 0.0318263546 0.0307605155 -0.0382059626 0.0176739246 0.0128675113 -0.0280963983 -0.0284616221 -0.0263398960 0.0680551082 -0.0562443696 0.0050334535 0.0147873173 0.0002992187 0.0588685423 -0.0014425407 0.0496338718 0.0481222868 0.0956979543 0.0598669201 0.0094160838 0.0143665103 -0.0037938170 0.0593630113 0.0512435511 0.0651364177 0.0181381386 0.0434957482 0.0564935617 0.0654054061 0.0364960358 0.0262854528 0.0112319486 0.0108780703 -0.0319519415 0.0630579889 0.0214995332 0.0104294363 0.0819029734 0.0167060886 -0.0070982026 0.0572555400 -0.0304883197 -0.0183194075 -0.0146951806 0.0252935216 0.0148924235 -0.0211191680 0.0009820733 -0.0273579527 -0.0341119096 0.0103553608 0.0581517853 0.0037766735 0.1182179824 0.0921178088 0.0713354275 0.0306179188 0.0250509083 -0.0202176403 0.0128105301 0.0252989400 -0.0043937834 0.0110300453 -0.0378052630 -0.0122283092 -0.0147866663 0.0194431432 -0.0248754472 -0.0574207716 -0.0085705351 0.0590567701 0.0587715283 0.0183864497 -0.0055668936 0.0090009980 -0.0043950998 0.0549852215 0.0452986769 -0.0091694379 -0.0144246770 0.0621093027 0.0569753535 0.0172145925 0.0349893756 0.0818064436 0.0838204324 -0.0101571381 -0.0001642001 0.0279069152 0.0266333427 0.0083927028 -0.0321040601 0.0436520427 -0.0065399455 0.0602328032 -0.0081855971 0.0015180372 -0.0540964976 0.0189126879 0.0419340171 0.0349958688 0.0389556177 0.0177268721 0.0619400442 -0.0374486893 0.0478989892 0.0712299049 -0.0071642702 0.0031469027 0.0429126620 -0.0212223437 -0.0520580001 0.0352720693 0.0214853566 -0.0595837533 0.0304639265 0.0352197140 -0.0159945562 0.0038885442 -0.0191699117 -0.0200339910 -0.0309192427 -0.0256722886 -0.0579303540 0.0275699161 0.0060605095 -0.0480873063 -0.0293341260 -0.0252706204 0.0528341942 -0.0401831269 0.0140143260 -0.0216282550 0.0541306585 -0.0380896181 -0.0123891858 0.0506495088 -0.0127480151 0.0433105826 0.0642535314 0.0214622505 -0.0031281156 -0.0000959135 0.0287316460 -0.0027227821 0.0518517792 0.0436436832 0.0296679363 -0.0213148780 -0.0546277314 -0.0724241212 -0.0329495147 -0.0136017492 -0.0459185801 -0.0293464847 0.0403499305 0.0520759411 0.0523894578 -0.0210449342 -0.0019180651 0.0123524293 -0.0335642546 0.0118441433 0.0135488892 0.0753876492 0.0586799756 0.0790707618 0.0122698601 -0.0207578056 0.0695412904 0.0033310687 -0.0217669699 0.0500735343 -0.0223199707 0.0621828809 0.0500708222 -0.0465115681 -0.0604902245 -0.0322856046 0.0129081663 0.0516110323 0.0222736672 0.0083749900 -0.0320362188 -0.0390234776 0.0185455196 -0.0238944087 0.0623751245 -0.0286101885 -0.0445034541 -0.0319407023 0.0453553237 0.0457824431 0.0056343866 0.0250939205 0.0652443096 0.0224773698 -0.0228793379 0.0149141531 0.0335173905 -0.0139216529 0.0107506113 0.0092300428 -0.0038404674 -0.0546557494 0.0068143304 -0.0153835071 0.0019236978 -0.0298287794 -0.0382298864 -0.0601410791 -0.0100816917 -0.0035906991 0.0294365883 -0.0446929894 0.0243350901 0.0564364679 -0.0507968739 -0.0289143100 0.0238454062 0.0475392006 0.0639644489 0.0579329096 -0.0553283691 0.0592448562 0.0047670868 -0.0435074419 0.1039801687 0.0734324530 0.0227153879 0.0744701400 -0.0201924797 0.0010961642 -0.0062607476 0.0535752848 -0.0521167777 0.0216220543 0.0018416481 0.0374442749 0.0091266511 -0.0644629151 0.0380828530 -0.0005898927 -0.0392235853 0.0416230410 -0.0489356630 0.0742364973 0.0334595703 0.0742012486 0.0191252567 0.0111999968 0.0257460549 0.0783917084 0.0173406191 0.0620257668 -0.0044018030 0.0104886899 0.0820611119 -0.0262486693 -0.0052754371 0.0054987827 0.0366551951 0.0203012284 0.0360381715 0.1053490490 -0.0141299339 0.0454528891 0.0856404081 -0.0055515743 -0.0304732397 0.0129501326 0.0525495373 0.0135247279 -0.0314570740 -0.0434838831 0.0399802849 0.0022542020 0.0072616944 0.0049438807 -0.0216718949 -0.0836750194 0.0517345108 0.0302242581 0.0044982457 0.0325455032 -0.0175761599 0.0094155539 -0.0044574547 -0.0468507372 0.0198452249 -0.0470426008 -0.0223855525 -0.0364487097 0.0412513502 -0.0149960089 0.0715684816 0.0818725154 -0.0006607238 -0.0151192239 0.0471347421 0.0213726237 -0.0132439714 -0.0961883813 -0.0014241148 -0.0313814357 -0.0538384132 -0.0360369422 -0.0381139629 -0.0346813612 -0.0885438100 -0.0873564631 -0.0183974653 -0.0968126357 -0.0803418905 -0.0241542235 -0.0962082297 -0.0062316302 -0.1051769927 -0.0241548996 0.0051006260 -0.0262152553 -0.0137310782 -0.0085816076 0.0112799909 0.0159062836 0.0468387716 0.0251998175 0.0961682349 0.0289759319 -0.0194326919 0.0431952700 0.0817259252 0.0297725592 0.0593820363 0.0218895897 -0.0045951102 0.0914458036 0.0298237205 -0.0684550926 -0.0262672268 -0.0068096644 -0.0015325714 -0.0642973110 0.0567606091 -0.0952490717 -0.0892942399 0.0014500114 -0.0045872456 -0.0240537710 -0.0309040621 0.0312826820 0.0355207697 0.0005132193 -0.0232873298 0.0603565723 -0.0135675902 -0.0098715937 0.0125009939 -0.0389912762 -0.0064114309 -0.0151452078 0.0451481529 0.0537109189 0.0626631156 0.0282824785 -0.0623395368 -0.0243389811 -0.0353226662 -0.0714120716 -0.0153835109 -0.0769851431 -0.0429256558 -0.0752545744 -0.0160250664 0.0611531436 -0.0246154852 0.0781844035 -0.0089434711 0.0139051452 0.0773882642 0.0457220599 0.0362172313 0.0017761954 0.0594683103 0.0720820799 0.0112426318 -0.0257720593 -0.0201701894 0.0030095598 0.0564903468 0.0720613524 0.0461579934 -0.0001170180 -0.0041984026 -0.0647862405 0.0562403277 0.0472574420 0.0155401211 0.0613201000 0.0473750457 0.0341242850 -0.0107394373 0.0166197103 0.0734792352 0.0137132294 0.0583996736 0.0656118765 0.0289944056 0.0705523640 0.0841618553 -0.0143740019 0.0744139701 -0.0023776018 0.0236387905 -0.0144950580 0.0762976930 0.0733140334 -0.0016753871 0.0582252853 0.0799667314 0.0568901151 -0.0074320207 0.0745502412 -0.0125389686 0.0889750719 0.0485709868 0.0012773827 0.0612823144 -0.0191632193 -0.0056397524 -0.0042487085 0.0603551865 0.0518888719 -0.0395026021 0.0111248689 -0.0057972022 0.0046141073 -0.0194560625 -0.0143271293 0.0721594915 0.0366172716 0.0606653951 0.0073462883 -0.0357131585 0.0238410495 0.0244213492 -0.0462206267 -0.0331612751 -0.0821223259 -0.0633007661 0.0050050523 -0.0136187393 0.0322835855 -0.0366154499 -0.0093329372 -0.0867131650 -0.0839157924 -0.0760980397 0.0193014946 -0.0278318971 -0.0473502912 0.0117204525 0.0138961570 -0.0143419495 0.0442419797 0.0609086081 0.0155026233 0.0535700098 0.0884803087 0.0310597941 0.0515925139 0.0232138336 -0.0172178373 0.0827391744 0.0472153202 0.0788948238 0.0053077624 0.0621677712 0.0716134906 0.0632664934 0.0746001080 0.0667948276 0.0111059323 -0.0621903129 -0.0417554192 0.0807319134 0.0039288430 -0.0682311878 0.0230230428 0.0648443401 -0.0170025136 -0.0040993802 0.0013572164 -0.0553898700 -0.0153852021 0.0474784411 -0.0646111816 0.0569965988 -0.0187089089 0.0097201476 -0.0164394155 0.0673011616 0.0367921554 0.0318867378 0.0162878353 0.0304798037 0.0025191312 -0.0001289020 0.0780877993 -0.0626450479 0.0063081165 0.0103282677 -0.0092133535 -0.0340139419 0.0538713969 -0.0141659519 -0.0400624163 0.0466722474 -0.1007658765 -0.0418807603 -0.0425154567 -0.0707939193 -0.0324987397 0.0147606321 -0.0289338231 -0.0780378506 0.0388305262 0.0218616817 -0.0739197582 -0.0748246089 -0.0013537121 -0.0821055248 -0.0473427363 -0.0310486332 -0.0537961721 -0.0511254892 -0.0673560351 -0.0912760943 -0.0231685285 -0.0546113364 -0.0436420701 -0.0570755713 -0.0359370373 -0.0165462010 -0.0194013231 -0.0374151878 -0.0086566648 -0.0549576692 -0.0776458234 -0.0586076416 -0.0374691412 -0.0944871381 -0.1141703948 -0.0437798239 -0.0969866738 -0.0111764800 -0.0635371357 -0.0730279759 -0.0461995900 -0.1022773981 -0.0024334516 -0.0462106168 -0.0240196921 0.0483420640 0.0150533756 0.0282344446 0.0335527211 0.0567600541 0.0249690711 0.0841457322 0.0899092704 -0.0061626490 -0.0038955333 -0.0390006304 -0.0674594417 -0.0369945727 0.0183302965 0.0355343670 0.0308569390 -0.0795382038 -0.0456430465 -0.0216138754 0.0341373608 0.0208306648 0.0328428820 -0.0101160565 0.0358843170 -0.0131224953 -0.0227868948 0.0332148597 0.0269683227 -0.0820485950 -0.0184864160 -0.0663079247 -0.0693815872 -0.0331152268 -0.0145167550 -0.0888861939 -0.1034375653 0.0032273119 -0.0611116514 -0.0272298474 -0.0788196102 -0.0092969798 -0.0650092736 -0.0857335851 -0.0123447170 0.0025947851 0.0426172167 -0.0183905419 -0.0063590677 0.0351485945 0.0610541888 0.0156661924 0.0321852639 -0.0001060137 0.0829013810 0.0504247993 0.0503308959 0.0312670358 -0.0059769126 0.0264546201 0.0043150145 -0.0198372174 0.0527571552 0.0588380955 -0.0438279584 0.0124151669 0.0040586200 -0.0025738890 -0.0636622757 0.0326100662 -0.0364448689 -0.0581584610 -0.0131440749 0.0745560452 0.0044394289 -0.0232763272 0.0292861108 0.0785446614 0.0556156226 0.0887506604 0.0325290672 0.0122657036 0.0224251561 0.0866701677 0.0422975011 -0.0259037819 0.0730633736 0.0386167094 0.0782490522 0.0902962834 0.0490003861 0.0126023730 -0.0171295702 -0.0431358591 -0.0017641070 -0.0453249775 -0.0685891584 0.0113744130 -0.0163310654 -0.1041828394 0.0428957492 -0.0369869955 0.0507455021 -0.0384121537 0.0543824509 0.0741235018 0.0148149328 0.0239999238 -0.0082405787 -0.0309315901 0.0179278404 0.0603163652 -0.0340407304 0.0803489685 0.0457080193 -0.0026014566 0.0368007235 -0.0226435456 0.0661397725 0.0180174727 -0.0429006554 0.0078091635 0.0612922981 0.0272928458 0.0184461866 0.0901661217 0.0525676683 0.0311979745 0.0361734331 0.0513715185 -0.0071939384 -0.0054349210 0.0414098427 0.0234425552 0.0342702530 -0.0151326153 -0.0219161659 0.0614260063 0.0162071716 -0.0537141003 -0.0202224739 0.0526466779 0.0152553041 -0.0135617545 0.0271708798 -0.0035152808 0.0122364340 -0.0106011815 -0.0005998550 -0.0121690333 0.0491117053 0.0260724239 0.0713814273 0.0735851452 0.0620343834 -0.0281552877 -0.0268633422 -0.0004764324 -0.0228813011 -0.0286576897 0.0384617709 0.0571317822 0.0231538061 -0.0508376434 0.0280271135 0.0169957522 -0.0528565459 -0.0457855202 -0.0272811707 -0.0407999754 0.0212953947 0.0381958298 0.0118392548 -0.0668432489 -0.0471155345 0.0318535753 0.0013892058 0.0033752604 -0.0309972297 -0.0233685654 -0.0517987758 0.0112696728 -0.0013774636 -0.0285021104 0.0395366214 -0.0249053556 -0.0292676091 -0.0133566484 -0.0758657083 -0.0680200309 0.0537255928 -0.0276119374 -0.0078340415 0.0451788716 0.0678695291 0.0513263270 -0.0538860597 0.0621094406 0.0553101860 0.0582847111 0.0600006543 0.0716334060 -0.0428607538 -0.0349893831 -0.0379930474 0.0148834623 0.0217105411 -0.0008593685 0.0085468311 0.0026407936 -0.0225642808 0.0304559115 0.0190589447 -0.0182507169 -0.0153884040 0.0187306646 -0.0247282721 0.0674407780 0.0315044336 -0.0015185639 0.0524971411 -0.0310234502 -0.0461449735 0.0176412761 -0.0126799894 -0.0378761403 -0.0297858939 0.0722328052 0.0566265099 -0.0227436330 0.0694863051 0.0147096273 0.0393941961 0.0205244347 0.0170982331 -0.0785833374 -0.0710993931 -0.0112736765 -0.0408103019 -0.0535015427 0.0431901813 0.0178874899 -0.0675818399 0.0353997834 -0.0772472993 0.0119772386 -0.0287071690 -0.0428197756 -0.0431404002 0.0320726186 -0.0068162074 -0.0836728141 0.0195717420 0.0871647075 0.0009134739 -0.0001472371 0.0200906750 0.0778550580 0.0369032361 -0.0073592369 0.0236199480 0.0180946682 -0.0385950692 0.0087792231 -0.0458028354 -0.0721969903 -0.0342033058 -0.0018615592 0.0209822040 -0.0916275457 -0.0840035826 0.0128209032 -0.0317712314 -0.0616983548 0.0094791027 -0.0667929053 -0.0614094436 -0.0843607932 -0.0573803000 -0.0425366461 -0.0803133398 0.0199717730 0.0102334702 -0.0419910774 -0.0524418727 -0.0852465108 0.0150382211 -0.0115286261 0.0144553641 0.0024148847 0.0383999944 0.0101207299 0.0453817509 0.0405213498 0.0784875900 0.0783501193 0.0003695795 0.0297474377 0.0840012580 -0.0384866074 0.0121444212 0.0608728975 -0.0439537615 0.0651457831 0.0333465897 -0.0248192679 0.0123049766 -0.0447917767 0.0077078040 0.0412069634 -0.0718151331 0.0561419576 -0.0014097245 -0.0196024124 0.0357701480 0.0666236728 -0.0098557323 0.0618446991 0.0669975951 0.1072795466 0.0555801578 0.0095764073 0.0621468611 0.0079113822 0.0708997175 -0.0138647109 -0.0130483359 0.0845736191 0.0752130821 0.0856832117 -0.0058791875 0.0727889314 0.0384147093 0.0249840003 0.0214536749 0.0066488059 -0.0138370767 0.0139633985 0.0177385472 0.0852767006 -0.0182783119 0.0243739579 0.0033922663 0.0034010177 -0.0595256388 0.0179748144 -0.0510328338 -0.0022617013 0.0668019429 -0.0642737746 0.0444537774 0.0349036157 -0.0190187041 -0.0168854166 0.0366249271 0.0542052686 0.0528547093 0.0257689226 0.0653329492 0.0146952933 0.0551677346 0.0135884387 0.0568412654 0.0824209973 -0.0516572371 0.0022186651 0.0012414448 0.0482779257 0.0917911455 0.1047238484 0.0138081359 0.0519733690 0.0187364761 0.0440636054 -0.0257629603 0.0531483516 0.0623398460 -0.0208623745 0.0102282660 0.0975740626 0.0546255000 0.0238468237 0.0502957478 0.0460251756 0.0967868716 0.0603213832 0.0376670808 0.0379783884 0.0341031291 0.0366799906 0.0117676118 0.0619628727 0.0031562170 0.0484738015 0.0129452916 0.0212900788 0.0753144324 0.0027052674 0.0303928889 0.0580069274 -0.0146878380 0.0479827337 0.0089603160 -0.0359651446 -0.0368702672 0.0616076738 0.0170692373 0.0159904882 0.0328283645 0.0355227105 0.0439012200 0.0725573450 -0.0208920315 0.0995706618 0.0968363062 -0.0361462459 -0.0063401260 0.0425842740 0.0117640793 0.0545916781 -0.0355947353 0.0619328432 -0.0322576165 -0.0099637173 -0.0682533160 -0.0524241105 0.0699509308 0.0054694228 -0.0054085883 0.0050291577 0.0049168807 0.0189743191 -0.0219032299 0.0162891112 -0.0204348676 -0.0442279428 -0.0388351716 -0.0398571305 0.0548119210 -0.0441377647 -0.0521966778 0.0209132768 0.0406074896 0.0880383551 0.0448017307 -0.0165988896 0.0747345760 0.0084529696 0.0537693463 0.0690291375 0.0663430616 -0.0058178790 -0.0640085489 0.0469927192 -0.0553864837 0.0043247729 0.0112431627 -0.0158540867 -0.0690215826 -0.0272130948 0.0309915710 -0.0019590231 0.0291868877 0.0348178633 0.0489740930 0.0615072548 0.0711153150 0.0069635408 0.0425984785 0.0450321697 0.0457115695 0.0457377285 0.0454656854 0.0219157580 0.0494538471 -0.0420809872 0.0573460981 -0.0436179414 -0.0786186680 0.0297779590 -0.0317817107 -0.0242731404 0.0223760903 0.0198984742 0.0171661675 -0.0022575208 -0.0097692935 -0.0457386300 -0.0173405800 -0.0165204313 -0.0215466339 -0.0401099175 -0.0234639142 -0.0130256610 0.0397598371 0.0487808995 0.0325361192 0.0357158706 0.0066751470 0.1006399393 0.0116371214 0.0302176867 0.0036320779 0.0734208673 0.1000741944 0.0022981125 0.0094506182 0.1012112945 -0.0201190747 0.0790430009 0.0760552138 -0.0418960266 -0.0143023161 -0.0096229734 -0.0866986513 0.0333883502 -0.0238293912 -0.0711038634 -0.0200953986 -0.0231493041 -0.0364241377 0.0050032004 0.0020802892 0.0944288000 0.0329413377 0.0218484141 0.0750134736 -0.0227460973 0.0926596895 -0.0030431733 0.0268180445 0.0443196446 0.0354726240 0.0469646119 -0.0250184964 -0.0078903018 -0.0302733369 -0.0128243687 0.0310927201 0.0180854760 0.0166058280 0.0662991107 0.0677366182 0.1166897267 0.0081480239 0.0843005776 0.0192220062 0.0289231725 0.0272677820 0.0098672565 0.0866726786 -0.0192456003 0.0224558059 0.0355294049 0.0139035368 0.0714889020 0.0824495032 -0.0281598791 -0.0044839182 0.1010402963 0.0513180569 0.0824841782 0.0739945993 -0.0033419859 0.0422222540 0.0525656305 0.0843529180 -0.0125613650 0.0869984925 0.0181949846 0.0449130237 0.0147946915 0.0025080978 -0.0095570991 0.0288138073 0.0393068381 0.0220012069 -0.0774203688 -0.0051464303 -0.0072379154 -0.0943703726 -0.0719766691 -0.1085993126 -0.0164121427 -0.0384626649 -0.0607588626 -0.0060023051 -0.0141331255 -0.0397749431 -0.0390743725 -0.0268375929 0.0292942058 0.0047035897 0.0563050695 -0.0337058678 0.0407385007 0.0601174086 0.0524607562 0.0422337167 -0.0124497041 0.0683060661 0.0784700662 0.0376144089 0.0547519438 -0.0230409950 -0.0784692913 0.0033837832 -0.0293723401 -0.0719469339 -0.0891504809 -0.0033399353 -0.0399133377 -0.0252239555 -0.0120194517 -0.0640143156 -0.0755606070 -0.0117478976 -0.0372674279 -0.0872855484 -0.0185910966 -0.0224790759 -0.0887088627 -0.0094128093 0.0336693041 -0.0587528273 -0.0095009897 -0.0577231124 -0.0400426686 0.0683849826 0.0562588945 0.0001262397 0.0800989121 0.0878455043 -0.0159188323 0.0118497768 0.0231753439 0.0929249004 0.0887657776 0.0896921754 0.0889181718 -0.0988314748 -0.0893752053 -0.0192430206 -0.0045466167 0.0091019161 -0.0111454083 -0.0889411941 -0.0966057926 -0.0025204204 -0.0201894492 -0.0922653526 -0.0523626432 -0.0323014669 -0.0694574565 -0.0241881572 -0.0417291746 -0.0860937461 -0.0895192027 -0.0282079987 0.0685739368 0.0248648934 0.0508199148 0.0499311611 0.0357570760 0.0407231748 0.0447955504 0.0329483114 -0.0138763329 -0.0341997407 -0.0598197840 -0.0285919905 -0.0142891631 -0.0084384242 -0.0268158428 -0.0058907210 -0.0671308264 0.0856784433 0.0687523782 0.0276399981 -0.0118486015 0.0570821948 0.0156676061 0.0672311932 0.0713759735 0.0673020110 -0.0229200628 0.0328613967 0.0075469976 0.0083945300 0.0408570431 0.0837828070 0.0676622540 0.0242875703 -0.0250496250 -0.0428121276 -0.0622018278 -0.0758772716 -0.0693835095 -0.0677591860 -0.0270535424 -0.0276120845 -0.0014443866 -0.0396266133 0.0427518226 0.0134385405 -0.0142872222 0.0770071000 0.0800703540 0.0576912910 0.0580652282 -0.0086583374 0.0612521023 0.0206621550 0.0080690254 0.0208363868 -0.0211853161 0.0304117892 0.0831293687 0.0701174960 0.0509183221 0.0043120589 0.0063916417 0.0405926593 0.0249361563 0.0305001270 0.0124079799 0.0190313645 -0.0048277653 0.0756997094 0.0342422910 -0.0318412520 -0.0556109548 -0.0333150849 -0.0247150101 -0.0986791477 0.0070169140 -0.0690652132 0.0065226723 -0.0694841072 0.0479946546 0.0294895452 0.0078078285 -0.0183480699 0.0021676586 -0.0100172246 0.0342683084 -0.0153158596 0.0125404559 -0.0352811441 -0.0392350368 -0.0951639637 -0.0281606037 -0.0835657716 -0.0230681598 -0.0673598051 -0.0407226272 0.0055081137 -0.0392522551 -0.0470584705 -0.0082550002 -0.0112875318 -0.0024204291 -0.0298221353 -0.0522238351 -0.0304445475 0.0420020930 0.0666842982 0.0447219051 0.0886545405 -0.0008772739 0.0873956010 0.0147065502 -0.0141830565 -0.0199935809 0.0593208857 0.0256958511 0.0117848814 0.0178014301 0.0232117660 0.0617848448 0.0259233955 0.0751322359 0.0730006844 0.0847669691 -0.0407805890 -0.0454804562 -0.0666482598 -0.0193012524 -0.0041414886 -0.0234821253 -0.0389306173 -0.0234870743 -0.0957651511 -0.0940770805 -0.0382754803 0.0018192693 -0.0258518308 -0.0817083344 0.0038431715 -0.0419959947 -0.0514515340 -0.0290175173 0.0643505305 0.0252787732 0.0222640820 -0.0170632675 0.0088654486 0.0264629684 0.0658839494 0.0595016517 0.0265240632 -0.0453644134 -0.0793931559 0.0117795514 -0.0477528237 0.0197755396 -0.0571629070 -0.0113521684 -0.0548193380 -0.0503803119 -0.1028947383 -0.0302720554 0.0125283636 -0.0216854364 -0.0219633337 -0.0852993727 -0.0997801796 -0.0821980089 -0.0748663545 -0.0974081457 -0.0737345964 -0.0539076254 -0.0455166996 -0.0007955964 0.0075086057 0.0153943086 -0.0403005667 -0.0795465559 0.0154336002 -0.0467281975 -0.0581229143 -0.0812626556 -0.0431305505 -0.0790025294 -0.0379599109 -0.0333788954 -0.0459785387 -0.0110383220 -0.0941106305 -0.0276281200 -0.0092692422 -0.0091601126 -0.0736986473 -0.1142123863 -0.0805993378 -0.0885178000 -0.0751834586 0.0083079142 -0.0162292793 0.0382025763 -0.0405640677 0.0404302292 -0.0285068210 -0.0100699868 -0.0344615802 0.0892338753 0.0401153378 0.1013695002 0.0026027879 -0.0086245667 0.0804968923 -0.0009980262 0.0268361047 0.0227109250 0.0569633469 -0.0389482863 -0.0081299180 0.0252683256 -0.0060253376 0.0514323488 0.0266530439 -0.0270046685 0.0252776705 -0.0503871478 -0.0342632867 -0.0081380242 -0.0444875918 0.0204189979 -0.0422865674 0.0335434675 0.0066904924 0.0651230440 0.0047526816 -0.0104895607 0.0048509780 0.0206438657 0.0718706995 0.0572688207 0.1028049439 0.0770988390 -0.0203423835 0.0015430807 0.0569719821 0.0353824534 0.1071362570 0.0212614723 0.0498104952 0.0247386079 0.0508025214 0.0575161837 0.0609088577 0.0810429528 0.0030171894 -0.0217814855 -0.0044389949 0.0357520990 0.0330060534 0.0684800446 0.0849225149 0.0371090472 0.0088221673 -0.0235031098 0.0064095850 0.0338875465 0.0463859402 0.0187210105 0.0332708545 -0.0288500674 0.0983398929 -0.0072424989 -0.0309090428 0.0643084496 0.0769304931 0.0342518091 0.1064453125 -0.0041230829 0.0453361943 0.0523649231 0.0378828533 0.0422358140 -0.0182155967 -0.0105368299 0.0041359547 -0.0159200784 -0.0170138124 -0.0035225975 -0.0439074486 0.0170955174 0.0336514860 -0.0109054670 0.0356508866 0.0434361026 0.0385250412 0.0119639877 0.0886183605 0.0610279627 0.0491836071 0.0834644437 0.0737014264 0.0194111243 0.0661819205 0.0161792636 0.0012579372 0.0207780190 0.0039922860 0.0354925096 -0.0260990337 0.0430979729 0.0274569318 0.0119790211 0.0213684663 0.0583671555 0.0087563144 0.0220962130 -0.0012238709 0.0015712240 0.0158735327 -0.0104787406 0.0571022667 -0.0155066624 -0.0338710137 0.0046599470 0.0344046392 0.0817657262 0.0080986330 0.0104594734 0.0089340350 0.0324807093 0.0071039922 0.0004278992 0.1013711318 0.0013232379 -0.0171654336 0.0572800040 -0.0567042120 -0.0136569757 -0.0326010063 0.0377147421 0.0596072562 0.0318303928 0.0147536537 -0.0472962335 -0.0077819079 -0.0101125464 -0.0212999042 0.0025545836 -0.0495299324 -0.0239407867 0.0421127528 0.0265128370 0.0494449548 0.0142268622 -0.0063774637 -0.0515292138 -0.0072562103 0.0060522174 -0.0154152252 0.0319994912 -0.0010038509 0.0137508381 0.0981391966 0.0068378416 0.0463214964 0.1071980223 0.0677606687 0.0763333887 0.0279129110 0.0306410752 -0.0294642504 -0.0502570830 0.0544641688 -0.0775164813 -0.0452967547 -0.0460930131 -0.0064941966 -0.0582277440 0.0772737339 0.0913761184 0.0879511386 0.0848706216 0.0602508895 0.0406032689 0.0043916171 0.0313181542 0.0161992665 0.0597774722 0.0036734955 0.0298924167 0.0333402753 0.0503468923 0.0227433853 0.0359044522 -0.0074868593 -0.0238255896 -0.0556483828 -0.0595676415 0.0447731242 -0.0500329137 -0.0450014062 0.0104429442 -0.0230690930 -0.0175204817 0.0333230607 0.0063527511 0.0158901233 -0.0103041707 -0.0528800115 0.0156252459 0.0073045162 -0.0369272493 0.0596589409 0.0693572760 0.0085359979 0.1058840752 0.0580327287 0.0156887528 -0.0021475637 0.0785692036 0.0105920369 0.0154666277 0.0836109817 -0.0141211813 0.0965228751 0.0629634634 -0.0501532964 0.0228488650 0.0290617347 -0.0693684742 -0.0464553908 0.0927554071 0.0094712730 -0.0614349544 -0.0034160181 -0.0718013421 0.0265322048 0.0473493002 0.0440819152 -0.0505123325 0.0188135486 0.0609452911 -0.0236701760 -0.0434420742 0.0406171829 -0.0223030224 0.0629836619 0.0569295138 0.0546421073 -0.0432275087 0.0499266535 0.0592827573 -0.0536834076 0.0589191802 0.0083070751 0.0074454690 0.0639991388 0.0825922489 -0.0090167718 0.0228065718 0.0971890390 0.0215079039 0.0218892395 0.0536103472 0.0128453961 -0.0202909093 0.0637234822 -0.0177613292 0.0145244664 0.0032355292 0.0403909869 -0.0195737593 0.0043060007 0.0103737582 -0.0333173051 0.0507730283 -0.0131451646 0.0471790470 -0.0060548512 0.0193044692 0.0621763021 0.0685395822 0.0058044610 0.0411331281 0.0814785808 0.0240314063 0.0650083572 0.0411191732 -0.0003781432 -0.0297817718 0.0405352190 -0.0355903246 -0.0259219874 -0.0516222678 -0.0174588356 0.0175009351 0.1176675409 -0.0034644359 0.0824029222 0.0843552724 0.0266901553 0.0892170072 0.0966563672 0.0396911986 -0.0234195143 0.0436914563 -0.0161014255 -0.0161867905 0.0096459873 -0.0259202737 -0.0086183138 -0.0018646171 -0.0397665165 -0.0213830005 0.0272860955 0.0427033305 -0.0182218384 -0.0409075134 0.0726536214 0.0177973658 -0.0396515094 0.0656254366 0.0850793794 -0.0007023216 0.0719791353 0.0382538550 0.0494668968 0.0072641200 0.0192090664 -0.0069054351 0.0208352301 0.0504307784 -0.0227716211 -0.0031709953 0.0223093666 0.0637561828 0.0409171171 -0.0172651298 0.0449323654 0.0780837610 0.0009169189 0.0609404296 0.1022748128 0.0389222838 0.1003389806 0.0423864610 -0.0543753058 0.1078566760 -0.0026470812 -0.0722179040 -0.0311646312 0.0145019842 0.0030584862 0.0236149300 -0.0051096692 -0.0484404191 0.0586726516 0.0730419010 0.0630877987 0.0580378734 0.0071625365 -0.0027012683 0.0504954495 0.1036968678 0.0285825729 -0.0188966207 0.0323106125 0.0701758265 0.0677461103 0.0950247198 -0.0145302797 0.0636457652 0.0062121782 0.0882957429 0.0495350584 0.0308092441 -0.0173535589 0.0341456309 0.0197070856 -0.0542080551 0.0167279895 0.0206809528 0.0469379760 0.0034915395 0.0298901144 0.0430324115 0.0218612105 -0.0043097427 0.0957414955 0.0814105570 0.0492495820 0.0247559380 0.0507849306 -0.0328385122 -0.0430940501 -0.0433789007 -0.0257590786 -0.0212007463 -0.0091539761 -0.0418994986 0.0017456056 -0.0465139449 -0.0056252014 -0.0399723873 0.0699443072 -0.0081103705 -0.0794916749 0.0235449169 -0.0041895891 0.0318771861 -0.0173604731 0.0407621339 0.1050051600 0.0640139431 0.0123970965 -0.0076372321 0.0180223528 0.0436783433 0.0270153619 -0.0002124835 -0.0044430383 0.0317916311 0.0145695508 0.0620578900 -0.0411780812 0.0293125026 0.0515943393 -0.0636564419 0.0188330337 0.0317080244 -0.0330560617 0.0450163595 0.0650552735 -0.0339608118 0.0433880650 0.0003697037 -0.0404650383 -0.0337092094 0.0303142294 0.0096677290 -0.0236902460 0.0252901129 -0.0551123209 -0.0389329754 -0.0175807644 0.0166044869 0.0555083826 -0.0070309229 0.0696294233 0.1118080989 0.0483185351 0.0664855093 0.0917332396 0.0818278044 0.0685102567 0.0431871824 0.0861017779 -0.0601620749 0.0075520021 0.0124752885 -0.0460726097 0.0152721740 0.0603687763 -0.0306591000 -0.0386255458 0.0220753551 0.0583897419 0.0165902730 0.0470707342 0.0224736445 0.0313414261 -0.0394015312 0.0594170131 0.0919199139 -0.0064143240 0.0760841742 0.0135515025 0.0034199692 0.0026306834 0.0590215214 0.0282523241 0.0591292828 -0.0150305983 0.0417141616 -0.0784480050 -0.0078429095 -0.0442746654 0.0083564492 -0.0652296022 0.0213605911 -0.0370083414 0.0142166745 -0.0130472090 -0.0310645625 0.0570420995 0.0252301060 0.0321407616 -0.0288636405 0.0368005633 -0.0144450041 0.0565770194 0.0247599650 0.0637886599 0.0049669016 0.0695197210 0.0604383573 0.0297654662 0.0494744293 0.0736815631 0.0725613907 